{"learner":{"attributes":{"scikit_learn":"{\"_estimator_type\": \"regressor\"}"},"feature_names":["Gender","Age","Height","Weight","Duration","Heart_Rate","Body_Temp"],"feature_types":["int","int","float","float","float","float","float"],"gradient_booster":{"model":{"cats":{"enc":[],"feature_segments":[],"sorted_idx":[]},"gbtree_model_param":{"num_parallel_tree":"1","num_trees":"100"},"iteration_indptr":[0,1,2,3,4,5,6,7,8,9,10,11,12,13,14,15,16,17,18,19,20,21,22,23,24,25,26,27,28,29,30,31,32,33,34,35,36,37,38,39,40,41,42,43,44,45,46,47,48,49,50,51,52,53,54,55,56,57,58,59,60,61,62,63,64,65,66,67,68,69,70,71,72,73,74,75,76,77,78,79,80,81,82,83,84,85,86,87,88,89,90,91,92,93,94,95,96,97,98,99,100],"tree_info":[0,0,0,0,0,0,0,0,0,0,0,0,0,0,0,0,0,0,0,0,0,0,0,0,0,0,0,0,0,0,0,0,0,0,0,0,0,0,0,0,0,0,0,0,0,0,0,0,0,0,0,0,0,0,0,0,0,0,0,0,0,0,0,0,0,0,0,0,0,0,0,0,0,0,0,0,0,0,0,0,0,0,0,0,0,0,0,0,0,0,0,0,0,0,0,0,0,0,0,0],"trees":[{"base_weights":[-6.1030073E-7,-4.604946E1,6.0134136E1,-6.599411E1,-1.938594E1,2.954542E1,8.770571E1,-7.565168E1,-5.2917976E1,-2.971579E1,-6.153082E0,1.6586388E1,4.295017E1,7.233381E1,1.08697945E2,-8.017118E1,-6.8212616E1,-5.7947483E1,-4.6402332E1,-3.7577366E1,-2.2544237E1,-1.613455E1,2.41555E0,9.508937E0,2.9891613E1,3.0283552E1,5.1347183E1,6.385279E1,9.198247E1,9.860991E1,1.2486688E2,-2.525001E1,-2.3160446E1,-2.1080526E1,-1.9151457E1,-6.1557888E1,-5.246418E1,-5.018627E1,-3.990199E1,-4.2614685E1,-3.0311426E1,-2.7487347E1,-1.4644778E1,-2.197385E1,-6.7670016E0,-4.9745407E0,1.1233603E1,2.7808113E0,2.0163635E1,1.9118477E1,3.7905502E1,2.364877E1,4.270148E1,4.125037E1,6.2015224E1,5.4151775E1,7.622244E1,7.906999E1,1.0658979E2,8.104343E1,1.0713227E2,1.0737702E2,1.4065843E2,-1.7366396E1,-1.9464178E1,-1.6879852E1,-1.4161896E1,-1.5760904E1,-1.3046823E1,-1.3274787E1,-1.0233347E1,-1.4837256E1,-1.1792561E1,-1.0512208E1,-7.1008253E0,-1.0080853E1,-6.8520236E0,-6.528836E0,-2.6403446E0,-1.0192717E1,-5.8740396E0,-4.5162015E0,-5.7587606E-1,-3.1578362E0,4.2908126E-1,1.755865E0,5.7646575E0,-1.2782934E0,2.9268618E0,2.9800525E0,7.1920614E0,2.994638E0,7.1937823E0,9.128985E0,1.3488467E1,6.3287377E0,1.0578583E1,1.0187504E1,1.5192929E1,1.0654334E1,1.5758965E1,1.5898147E1,2.1789732E1,1.329849E1,1.8822973E1,1.938285E1,2.5006758E1,2.0335335E1,2.7052753E1,2.7795424E1,3.680692E1,2.2343197E1,2.753479E1,2.9768686E1,3.577922E1,2.8193419E1,3.5931736E1,3.6482067E1,4.5727646E1],"categories":[],"categories_nodes":[],"categories_segments":[],"categories_sizes":[],"default_left":[0,0,0,0,0,0,0,0,0,0,0,0,0,0,0,0,0,0,0,0,0,0,0,0,0,0,0,0,0,0,0,0,0,0,0,0,0,0,0,0,0,0,0,0,0,0,0,0,0,0,0,0,0,0,0,0,0,0,0,0,0,0,0,0,0,0,0,0,0,0,0,0,0,0,0,0,0,0,0,0,0,0,0,0,0,0,0,0,0,0,0,0,0,0,0,0,0,0,0,0,0,0,0,0,0,0,0,0,0,0,0,0,0,0,0,0,0,0,0],"id":0,"left_children":[1,3,5,7,9,11,13,15,17,19,21,23,25,27,29,31,33,35,37,39,41,43,45,47,49,51,53,55,57,59,61,-1,-1,-1,-1,63,65,67,69,71,73,75,77,79,81,83,85,87,89,91,93,95,97,99,101,103,105,107,109,111,113,115,117,-1,-1,-1,-1,-1,-1,-1,-1,-1,-1,-1,-1,-1,-1,-1,-1,-1,-1,-1,-1,-1,-1,-1,-1,-1,-1,-1,-1,-1,-1,-1,-1,-1,-1,-1,-1,-1,-1,-1,-1,-1,-1,-1,-1,-1,-1,-1,-1,-1,-1,-1,-1,-1,-1,-1,-1],"loss_changes":[3.3235274E7,3.613328E6,4.387196E6,4.86986E5,3.9759512E5,4.28184E5,8.7534E5,6.964E4,5.1546E4,9.127725E4,1.0925761E5,1.1808378E5,1.2746175E5,2.57919E5,1.76082E5,9.924E3,3.16725E3,1.51815E4,1.585475E4,2.718375E4,3.306147E4,3.2124266E4,4.4890227E4,5.8869945E4,3.691725E4,3.9031812E4,7.5857125E4,1.28951E5,8.116475E4,9.8509E4,1.06421E5,0E0,0E0,0E0,0E0,3.012E3,4.8603125E3,4.876125E3,5.3380938E3,8.394875E3,9.285219E3,1.4181625E4,1.3618008E4,9.763406E3,9.129986E3,1.334886E4,1.3373359E4,2.4846791E4,1.2156148E4,8.109703E3,1.1766031E4,8.713891E3,9.945281E3,2.252575E4,2.986625E4,4.99675E4,3.479175E4,2.5973375E4,3.800225E4,9.946875E3,3.40925E4,2.412025E4,3.2577E4,0E0,0E0,0E0,0E0,0E0,0E0,0E0,0E0,0E0,0E0,0E0,0E0,0E0,0E0,0E0,0E0,0E0,0E0,0E0,0E0,0E0,0E0,0E0,0E0,0E0,0E0,0E0,0E0,0E0,0E0,0E0,0E0,0E0,0E0,0E0,0E0,0E0,0E0,0E0,0E0,0E0,0E0,0E0,0E0,0E0,0E0,0E0,0E0,0E0,0E0,0E0,0E0,0E0,0E0,0E0,0E0],"parents":[2147483647,0,0,1,1,2,2,3,3,4,4,5,5,6,6,7,7,8,8,9,9,10,10,11,11,12,12,13,13,14,14,15,15,16,16,17,17,18,18,19,19,20,20,21,21,22,22,23,23,24,24,25,25,26,26,27,27,28,28,29,29,30,30,35,35,36,36,37,37,38,38,39,39,40,40,41,41,42,42,43,43,44,44,45,45,46,46,47,47,48,48,49,49,50,50,51,51,52,52,53,53,54,54,55,55,56,56,57,57,58,58,59,59,60,60,61,61,62,62],"right_children":[2,4,6,8,10,12,14,16,18,20,22,24,26,28,30,32,34,36,38,40,42,44,46,48,50,52,54,56,58,60,62,-1,-1,-1,-1,64,66,68,70,72,74,76,78,80,82,84,86,88,90,92,94,96,98,100,102,104,106,108,110,112,114,116,118,-1,-1,-1,-1,-1,-1,-1,-1,-1,-1,-1,-1,-1,-1,-1,-1,-1,-1,-1,-1,-1,-1,-1,-1,-1,-1,-1,-1,-1,-1,-1,-1,-1,-1,-1,-1,-1,-1,-1,-1,-1,-1,-1,-1,-1,-1,-1,-1,-1,-1,-1,-1,-1,-1,-1,-1],"split_conditions":[1.8E1,1.1E1,2.4E1,7E0,1.5E1,1.01E2,1.08E2,5E0,9E1,9.3E1,9.6E1,4.9E1,2.1E1,5.3E1,4.7E1,3E0,8.8E1,4.7E1,1E1,4.5E1,4.5E1,4.5E1,4.3E1,2.1E1,2E1,5E1,4.1E1,2.7E1,2.7E1,2.7E1,1E0,-2.525001E1,-2.3160446E1,-2.1080526E1,-1.9151457E1,1E0,9E0,5.3E1,4.6E1,8.8E1,1.3E1,1.3E1,1.3E1,8.9E1,9.1E1,1E2,1.7E1,9.7E1,9.6E1,9.6E1,1E0,1.07E2,1E0,1.07E2,1E0,1.03E2,1.04E2,1E0,1E0,1.12E2,1.13E2,2.8E1,2.7E1,-1.7366396E1,-1.9464178E1,-1.6879852E1,-1.4161896E1,-1.5760904E1,-1.3046823E1,-1.3274787E1,-1.0233347E1,-1.4837256E1,-1.1792561E1,-1.0512208E1,-7.1008253E0,-1.0080853E1,-6.8520236E0,-6.528836E0,-2.6403446E0,-1.0192717E1,-5.8740396E0,-4.5162015E0,-5.7587606E-1,-3.1578362E0,4.2908126E-1,1.755865E0,5.7646575E0,-1.2782934E0,2.9268618E0,2.9800525E0,7.1920614E0,2.994638E0,7.1937823E0,9.128985E0,1.3488467E1,6.3287377E0,1.0578583E1,1.0187504E1,1.5192929E1,1.0654334E1,1.5758965E1,1.5898147E1,2.1789732E1,1.329849E1,1.8822973E1,1.938285E1,2.5006758E1,2.0335335E1,2.7052753E1,2.7795424E1,3.680692E1,2.2343197E1,2.753479E1,2.9768686E1,3.577922E1,2.8193419E1,3.5931736E1,3.6482067E1,4.5727646E1],"split_indices":[4,4,4,4,4,5,5,4,5,5,5,1,4,1,1,4,5,1,4,1,1,1,1,4,4,1,1,4,4,4,0,0,0,0,0,0,4,1,1,5,4,4,4,5,5,5,4,5,5,5,0,5,0,5,0,5,5,0,0,5,5,4,4,0,0,0,0,0,0,0,0,0,0,0,0,0,0,0,0,0,0,0,0,0,0,0,0,0,0,0,0,0,0,0,0,0,0,0,0,0,0,0,0,0,0,0,0,0,0,0,0,0,0,0,0,0,0,0,0],"split_type":[0,0,0,0,0,0,0,0,0,0,0,0,0,0,0,0,0,0,0,0,0,0,0,0,0,0,0,0,0,0,0,0,0,0,0,0,0,0,0,0,0,0,0,0,0,0,0,0,0,0,0,0,0,0,0,0,0,0,0,0,0,0,0,0,0,0,0,0,0,0,0,0,0,0,0,0,0,0,0,0,0,0,0,0,0,0,0,0,0,0,0,0,0,0,0,0,0,0,0,0,0,0,0,0,0,0,0,0,0,0,0,0,0,0,0,0,0,0,0],"sum_hessian":[1.2E4,6.796E3,5.204E3,3.887E3,2.909E3,2.468E3,2.736E3,2.233E3,1.654E3,1.633E3,1.276E3,1.256E3,1.212E3,1.582E3,1.154E3,1.383E3,8.5E2,9.29E2,7.25E2,7.77E2,8.56E2,5.89E2,6.87E2,8.21E2,4.35E2,4.85E2,7.27E2,1.108E3,4.74E2,7.15E2,4.39E2,5.78E2,8.05E2,5.68E2,2.82E2,5.54E2,3.75E2,4.54E2,2.71E2,4.56E2,3.21E2,5.25E2,3.31E2,3.62E2,2.27E2,3.74E2,3.13E2,5.04E2,3.17E2,1.87E2,2.48E2,3.18E2,1.67E2,3.76E2,3.51E2,6.24E2,4.84E2,2.55E2,2.19E2,2.37E2,4.78E2,2.12E2,2.27E2,2.72E2,2.82E2,2.12E2,1.63E2,3.31E2,1.23E2,1.51E2,1.2E2,1.44E2,3.12E2,1.85E2,1.36E2,2.24E2,3.01E2,1.48E2,1.83E2,5.8E1,3.04E2,8.3E1,1.44E2,2E2,1.74E2,1.88E2,1.25E2,2.51E2,2.53E2,8.7E1,2.3E2,6.6E1,1.21E2,1.23E2,1.25E2,2.63E2,5.5E1,8.2E1,8.5E1,2.52E2,1.24E2,1.93E2,1.58E2,2.94E2,3.3E2,1.88E2,2.96E2,1.3E2,1.25E2,1.21E2,9.8E1,1.52E2,8.5E1,2.95E2,1.83E2,1.06E2,1.06E2,9.1E1,1.36E2],"tree_param":{"num_deleted":"0","num_feature":"7","num_nodes":"119","size_leaf_vector":"1"}},{"base_weights":[2.5474882E-2,-3.0150831E1,4.5318226E1,-4.45015E1,-8.755781E0,2.6716719E1,6.519965E1,-5.1655437E1,-3.337598E1,-1.6332285E1,7.5117284E-1,1.899807E1,4.096244E1,5.5642895E1,8.056564E1,-5.6154804E1,-4.6587822E1,-4.0813545E1,-3.0527824E1,-1.9459663E1,-5.908622E0,-9.704063E0,5.614326E0,1.2599559E1,2.8222322E1,3.5156414E1,5.4696857E1,4.5101585E1,6.631368E1,7.466739E1,9.6427216E1,-1.734525E1,-1.564406E1,-4.866299E1,-4.307707E1,-4.3735382E1,-3.789209E1,-3.2630577E1,-2.457315E1,-2.226781E1,-1.182377E1,-9.658471E0,2.4824965E0,-1.6559673E1,-4.1099005E0,1.6800284E0,1.5419864E1,4.285579E0,1.695588E1,2.1566671E1,3.6774014E1,2.6091064E1,4.0033524E1,4.0518715E1,6.2225124E1,3.560902E1,5.150904E1,5.5399216E1,7.3417656E1,6.456282E1,8.165865E1,8.169188E1,3.2628002E1,-1.5353796E1,-1.3917785E1,-1.3813948E1,-1.2141034E1,-1.1841253E1,-1.4132943E1,-1.1886282E1,-1.0223316E1,-1.0351343E1,-8.018055E0,-8.758507E0,-6.241999E0,-7.9684596E0,-5.691905E0,-6.640153E0,-2.9811969E0,-3.7893112E0,-1.5830294E0,-1.4659069E0,2.6277752E0,-2.8146527E0,-6.9766746E0,-3.77927E0,-5.067106E-1,-2.8827313E-1,3.7201858E0,2.3928065E0,6.557945E0,2.7594943E0,-6.989912E-1,3.6553848E0,7.0302205E0,5.1891737E0,8.96965E0,7.4504085E0,1.1887474E1,6.3608346E0,9.016198E0,1.0735101E1,1.4046418E1,1.0814163E1,1.5318139E1,1.5050635E1,2.148311E1,6.731755E0,1.1600657E1,1.382284E1,1.7577063E1,1.5052565E1,1.9830704E1,1.9339413E1,2.4683174E1,1.679916E1,2.0844315E1,2.180548E1,2.6608788E1,2.030163E1,2.579874E1],"categories":[],"categories_nodes":[],"categories_segments":[],"categories_sizes":[],"default_left":[0,0,0,0,0,0,0,0,0,0,0,0,0,0,0,0,0,0,0,0,0,0,0,0,0,0,0,0,0,0,0,0,0,0,0,0,0,0,0,0,0,0,0,0,0,0,0,0,0,0,0,0,0,0,0,0,0,0,0,0,0,0,0,0,0,0,0,0,0,0,0,0,0,0,0,0,0,0,0,0,0,0,0,0,0,0,0,0,0,0,0,0,0,0,0,0,0,0,0,0,0,0,0,0,0,0,0,0,0,0,0,0,0,0,0,0,0,0,0,0,0],"id":1,"left_children":[1,3,5,7,9,11,13,15,17,19,21,23,25,27,29,31,33,35,37,39,41,43,45,47,49,51,53,55,57,59,61,-1,-1,63,65,67,69,71,73,75,77,79,81,83,85,87,89,91,93,95,97,99,101,103,105,107,109,111,113,115,117,119,-1,-1,-1,-1,-1,-1,-1,-1,-1,-1,-1,-1,-1,-1,-1,-1,-1,-1,-1,-1,-1,-1,-1,-1,-1,-1,-1,-1,-1,-1,-1,-1,-1,-1,-1,-1,-1,-1,-1,-1,-1,-1,-1,-1,-1,-1,-1,-1,-1,-1,-1,-1,-1,-1,-1,-1,-1,-1,-1],"loss_changes":[1.6403948E7,2.2111705E6,1.773047E6,3.41395E5,2.0839355E5,2.7202675E5,3.3606E5,5.71685E4,3.4553875E4,5.2368938E4,6.533999E4,9.4728E4,6.753275E4,1.58199E5,7.5784E4,6.208E3,6.93025E3,2.312E3,1.454925E4,2.6282812E4,1.1760582E4,1.55793125E4,3.3806914E4,3.444342E4,3.6715312E4,2.6146312E4,2.4910062E4,4.2201875E4,5.098325E4,4.0717E4,3.41845E4,0E0,0E0,2.030375E3,1.767125E3,1.3927812E3,2.325E2,9.0676875E3,5.032797E3,1.2284875E4,6.2955977E3,3.2937754E3,5.408088E3,8.57677E3,4.622456E3,1.7763803E4,1.1858082E4,1.0714077E4,1.9032672E4,1.2751766E4,8.78475E3,3.5858438E3,9.805875E3,2.4960625E3,1.51905625E4,1.10200625E4,1.3843125E4,1.25625625E4,2.856525E4,7.525875E3,1.761375E4,9.385625E2,0E0,0E0,0E0,0E0,0E0,0E0,0E0,0E0,0E0,0E0,0E0,0E0,0E0,0E0,0E0,0E0,0E0,0E0,0E0,0E0,0E0,0E0,0E0,0E0,0E0,0E0,0E0,0E0,0E0,0E0,0E0,0E0,0E0,0E0,0E0,0E0,0E0,0E0,0E0,0E0,0E0,0E0,0E0,0E0,0E0,0E0,0E0,0E0,0E0,0E0,0E0,0E0,0E0,0E0,0E0,0E0,0E0,0E0,0E0],"parents":[2147483647,0,0,1,1,2,2,3,3,4,4,5,5,6,6,7,7,8,8,9,9,10,10,11,11,12,12,13,13,14,14,15,15,16,16,17,17,18,18,19,19,20,20,21,21,22,22,23,23,24,24,25,25,26,26,27,27,28,28,29,29,30,30,33,33,34,34,35,35,36,36,37,37,38,38,39,39,40,40,41,41,42,42,43,43,44,44,45,45,46,46,47,47,48,48,49,49,50,50,51,51,52,52,53,53,54,54,55,55,56,56,57,57,58,58,59,59,60,60,61,61],"right_children":[2,4,6,8,10,12,14,16,18,20,22,24,26,28,30,32,34,36,38,40,42,44,46,48,50,52,54,56,58,60,62,-1,-1,64,66,68,70,72,74,76,78,80,82,84,86,88,90,92,94,96,98,100,102,104,106,108,110,112,114,116,118,120,-1,-1,-1,-1,-1,-1,-1,-1,-1,-1,-1,-1,-1,-1,-1,-1,-1,-1,-1,-1,-1,-1,-1,-1,-1,-1,-1,-1,-1,-1,-1,-1,-1,-1,-1,-1,-1,-1,-1,-1,-1,-1,-1,-1,-1,-1,-1,-1,-1,-1,-1,-1,-1,-1,-1,-1,-1,-1,-1],"split_conditions":[1.9E1,1.2E1,2.5E1,8E0,1.6E1,1.04E2,1.09E2,5E0,8.7E1,9.8E1,9.5E1,4.5E1,5.4E1,4.1E1,5.7E1,4E0,4.8E1,3.9E1,5.7E1,5.5E1,5.1E1,3.6E1,5.4E1,9.8E1,2.2E1,2.2E1,2.2E1,1.04E2,1.04E2,2.8E1,1E0,-1.734525E1,-1.564406E1,8.6E1,8.6E1,1E0,1E1,9.5E1,1E1,9.2E1,8.7E1,1.01E2,1E0,1E0,9E1,1.03E2,1E0,1E0,2.2E1,6.5E1,9.7E1,3.2E1,1.08E2,8.4E1,1E0,9.9E1,2.8E1,2.8E1,1E0,3E1,3.1E1,2.7E1,3.2628002E1,-1.5353796E1,-1.3917785E1,-1.3813948E1,-1.2141034E1,-1.1841253E1,-1.4132943E1,-1.1886282E1,-1.0223316E1,-1.0351343E1,-8.018055E0,-8.758507E0,-6.241999E0,-7.9684596E0,-5.691905E0,-6.640153E0,-2.9811969E0,-3.7893112E0,-1.5830294E0,-1.4659069E0,2.6277752E0,-2.8146527E0,-6.9766746E0,-3.77927E0,-5.067106E-1,-2.8827313E-1,3.7201858E0,2.3928065E0,6.557945E0,2.7594943E0,-6.989912E-1,3.6553848E0,7.0302205E0,5.1891737E0,8.96965E0,7.4504085E0,1.1887474E1,6.3608346E0,9.016198E0,1.0735101E1,1.4046418E1,1.0814163E1,1.5318139E1,1.5050635E1,2.148311E1,6.731755E0,1.1600657E1,1.382284E1,1.7577063E1,1.5052565E1,1.9830704E1,1.9339413E1,2.4683174E1,1.679916E1,2.0844315E1,2.180548E1,2.6608788E1,2.030163E1,2.579874E1],"split_indices":[4,4,4,4,4,5,5,4,5,5,5,1,1,1,1,4,1,1,1,1,1,1,1,5,4,4,4,5,5,4,0,0,0,5,5,0,4,5,4,5,5,5,0,0,5,5,0,0,4,1,5,1,5,3,0,5,4,4,0,1,1,4,0,0,0,0,0,0,0,0,0,0,0,0,0,0,0,0,0,0,0,0,0,0,0,0,0,0,0,0,0,0,0,0,0,0,0,0,0,0,0,0,0,0,0,0,0,0,0,0,0,0,0,0,0,0,0,0,0,0,0],"split_type":[0,0,0,0,0,0,0,0,0,0,0,0,0,0,0,0,0,0,0,0,0,0,0,0,0,0,0,0,0,0,0,0,0,0,0,0,0,0,0,0,0,0,0,0,0,0,0,0,0,0,0,0,0,0,0,0,0,0,0,0,0,0,0,0,0,0,0,0,0,0,0,0,0,0,0,0,0,0,0,0,0,0,0,0,0,0,0,0,0,0,0,0,0,0,0,0,0,0,0,0,0,0,0,0,0,0,0,0,0,0,0,0,0,0,0,0,0,0,0,0,0],"sum_hessian":[1.2E4,7.202E3,4.798E3,4.31E3,2.892E3,2.48E3,2.318E3,2.621E3,1.689E3,1.609E3,1.283E3,1.61E3,8.7E2,1.432E3,8.86E2,1.383E3,1.238E3,4.64E2,1.225E3,1.237E3,3.72E2,4.07E2,8.76E2,9.52E2,6.58E2,6.14E2,2.56E2,7.23E2,7.09E2,6.5E2,2.36E2,9.68E2,4.15E2,7.7E2,4.68E2,2.25E2,2.39E2,9.02E2,3.23E2,9.03E2,3.34E2,2.57E2,1.15E2,1.82E2,2.25E2,6.26E2,2.5E2,3.28E2,6.24E2,3.72E2,2.86E2,2.17E2,3.97E2,9.1E1,1.65E2,2.94E2,4.29E2,2.83E2,4.26E2,2.7E2,3.8E2,1.11E2,1.25E2,3.55E2,4.15E2,2.11E2,2.57E2,1.05E2,1.2E2,1.58E2,8.1E1,6.81E2,2.21E2,1.42E2,1.81E2,3.89E2,5.14E2,5E1,2.84E2,1.52E2,1.05E2,5.3E1,6.2E1,8.9E1,9.3E1,4.9E1,1.76E2,5.03E2,1.23E2,1.17E2,1.33E2,1.88E2,1.4E2,3.61E2,2.63E2,2.48E2,1.24E2,5.7E1,2.29E2,1E2,1.17E2,2.48E2,1.49E2,6.7E1,2.4E1,7.5E1,9E1,5.7E1,2.37E2,2.47E2,1.82E2,1.94E2,8.9E1,2.16E2,2.1E2,1.03E2,1.67E2,1.72E2,2.08E2,3E1,8.1E1],"tree_param":{"num_deleted":"0","num_feature":"7","num_nodes":"121","size_leaf_vector":"1"}},{"base_weights":[3.813384E-2,-2.2679792E1,2.9704552E1,-3.3906803E1,-1.10425005E1,1.6792578E1,4.5766285E1,-3.8519367E1,-2.8743465E1,-1.7993984E1,-4.2245717E0,9.618914E0,2.5265741E1,3.97058E1,5.8747326E1,-1.2493503E1,-3.703601E1,-3.3083927E1,-2.7048328E1,-2.071467E1,-1.3415787E1,-7.445017E0,3.7953467E0,2.9941626E0,1.4272444E1,1.9990133E1,3.339984E1,3.5659683E1,5.462809E1,5.2070736E1,6.667103E1,-3.858159E1,-3.4983837E1,-3.4056103E1,-8.628843E0,-2.8598854E1,-2.3250233E1,-2.4270052E1,-1.794908E1,-1.7352291E1,-1.0701755E1,-1.2233932E1,-3.8840947E0,-2.325532E0,7.4272013E0,-3.442574E0,7.056195E0,1.0430452E1,2.2164986E1,1.3989004E1,2.5036985E1,2.5343899E1,3.977338E1,2.9334293E1,4.104721E1,4.4576546E1,6.3730232E1,4.962571E1,2.075125E1,5.6719765E1,7.634056E1,-1.104045E1,-1.2124965E1,-1.1043259E1,-1.0051853E1,-9.522057E0,-1.0866922E1,-9.264633E0,-7.8607197E0,-7.4037766E0,-5.4940963E0,-5.830341E0,-8.693055E0,-6.7486715E0,-4.933307E0,-4.2392516E0,-6.101253E0,-3.6603677E0,-1.3363706E0,-2.215583E0,-5.110495E0,-3.2770019E0,-6.7090905E-1,-1.3680191E0,9.916555E-1,1.2230219E0,3.8466349E0,-5.0441966E0,-5.667111E-1,-8.5126793E-1,2.5568173E0,-1.0497143E0,3.6458235E0,2.5633142E0,7.144929E0,2.9990034E0,5.2795696E0,6.035513E0,9.041734E0,6.4059243E0,8.850565E0,1.0291823E1,1.4734931E1,7.0740495E0,1.034366E1,1.0130979E1,1.3551094E1,7.5397058E0,1.4325904E1,1.6766228E1,2.2375206E1,1.3410119E1,1.6907335E1,1.5491577E1,1.9435833E1,2.1408604E1,2.807105E1],"categories":[],"categories_nodes":[],"categories_segments":[],"categories_sizes":[],"default_left":[0,0,0,0,0,0,0,0,0,0,0,0,0,0,0,0,0,0,0,0,0,0,0,0,0,0,0,0,0,0,0,0,0,0,0,0,0,0,0,0,0,0,0,0,0,0,0,0,0,0,0,0,0,0,0,0,0,0,0,0,0,0,0,0,0,0,0,0,0,0,0,0,0,0,0,0,0,0,0,0,0,0,0,0,0,0,0,0,0,0,0,0,0,0,0,0,0,0,0,0,0,0,0,0,0,0,0,0,0,0,0,0,0,0,0,0,0],"id":2,"left_children":[1,3,5,7,9,11,13,15,17,19,21,23,25,27,29,-1,31,33,35,37,39,41,43,45,47,49,51,53,55,57,59,61,63,65,-1,67,69,71,73,75,77,79,81,83,85,87,89,91,93,95,97,99,101,103,105,107,109,111,-1,113,115,-1,-1,-1,-1,-1,-1,-1,-1,-1,-1,-1,-1,-1,-1,-1,-1,-1,-1,-1,-1,-1,-1,-1,-1,-1,-1,-1,-1,-1,-1,-1,-1,-1,-1,-1,-1,-1,-1,-1,-1,-1,-1,-1,-1,-1,-1,-1,-1,-1,-1,-1,-1,-1,-1,-1,-1],"loss_changes":[8.0888615E6,8.876675E5,1.0786895E6,8.127325E4,1.581749E5,1.7523931E5,1.801055E5,6.91425E3,1.1142375E4,2.0311625E4,4.3599594E4,4.8203844E4,5.6105312E4,9.36895E4,3.54655E4,0E0,2.60225E3,9.3184375E2,6.2959375E3,9.74125E3,6.4275625E3,2.0484242E4,1.077666E4,1.6940902E4,2.7635688E4,2.4030625E4,2.564E4,4.135975E4,2.7900062E4,1.3458625E4,2.77125E4,8.02375E2,2.406875E2,6.870625E2,0E0,3.7596875E3,2.003E3,9.678875E3,3.6390312E3,2.1264219E3,3.4022422E3,1.1816141E4,8.0019287E3,2.2925527E3,5.442666E3,5.182258E3,5.7844453E3,1.4916734E4,6.5446094E3,5.1559688E3,1.0335219E4,3.2197969E3,1.30264375E4,1.6297219E4,1.8637875E4,8.867344E3,1.06433125E4,9.318E3,0E0,3.54025E3,7.561875E3,0E0,0E0,0E0,0E0,0E0,0E0,0E0,0E0,0E0,0E0,0E0,0E0,0E0,0E0,0E0,0E0,0E0,0E0,0E0,0E0,0E0,0E0,0E0,0E0,0E0,0E0,0E0,0E0,0E0,0E0,0E0,0E0,0E0,0E0,0E0,0E0,0E0,0E0,0E0,0E0,0E0,0E0,0E0,0E0,0E0,0E0,0E0,0E0,0E0,0E0,0E0,0E0,0E0,0E0,0E0,0E0],"parents":[2147483647,0,0,1,1,2,2,3,3,4,4,5,5,6,6,7,7,8,8,9,9,10,10,11,11,12,12,13,13,14,14,16,16,17,17,18,18,19,19,20,20,21,21,22,22,23,23,24,24,25,25,26,26,27,27,28,28,29,29,30,30,31,31,32,32,33,33,35,35,36,36,37,37,38,38,39,39,40,40,41,41,42,42,43,43,44,44,45,45,46,46,47,47,48,48,49,49,50,50,51,51,52,52,53,53,54,54,55,55,56,56,57,57,59,59,60,60],"right_children":[2,4,6,8,10,12,14,16,18,20,22,24,26,28,30,-1,32,34,36,38,40,42,44,46,48,50,52,54,56,58,60,62,64,66,-1,68,70,72,74,76,78,80,82,84,86,88,90,92,94,96,98,100,102,104,106,108,110,112,-1,114,116,-1,-1,-1,-1,-1,-1,-1,-1,-1,-1,-1,-1,-1,-1,-1,-1,-1,-1,-1,-1,-1,-1,-1,-1,-1,-1,-1,-1,-1,-1,-1,-1,-1,-1,-1,-1,-1,-1,-1,-1,-1,-1,-1,-1,-1,-1,-1,-1,-1,-1,-1,-1,-1,-1,-1,-1],"split_conditions":[1.8E1,1E1,2.5E1,6E0,1.4E1,1.02E2,1.1E2,3E0,8.5E1,9.4E1,9.9E1,3.5E1,2.3E1,6E1,4.2E1,-1.2493503E1,4.3E1,6E1,9E0,3.6E1,3.4E1,3.5E1,3.5E1,2E1,2.2E1,3.8E1,3.9E1,1.05E2,1E0,1.17E2,1E0,1E0,8.4E1,1E0,-8.628843E0,4.2E1,5.9E1,1E0,8.7E1,1E0,1E2,1E0,9E1,1.04E2,8.5E1,9.2E1,9.4E1,9.3E1,9.4E1,2.1E1,1E0,1.06E2,8.3E1,3.5E1,3E1,1.01E2,2.8E1,2.9E1,2.075125E1,2.9E1,1.15E2,-1.104045E1,-1.2124965E1,-1.1043259E1,-1.0051853E1,-9.522057E0,-1.0866922E1,-9.264633E0,-7.8607197E0,-7.4037766E0,-5.4940963E0,-5.830341E0,-8.693055E0,-6.7486715E0,-4.933307E0,-4.2392516E0,-6.101253E0,-3.6603677E0,-1.3363706E0,-2.215583E0,-5.110495E0,-3.2770019E0,-6.7090905E-1,-1.3680191E0,9.916555E-1,1.2230219E0,3.8466349E0,-5.0441966E0,-5.667111E-1,-8.5126793E-1,2.5568173E0,-1.0497143E0,3.6458235E0,2.5633142E0,7.144929E0,2.9990034E0,5.2795696E0,6.035513E0,9.041734E0,6.4059243E0,8.850565E0,1.0291823E1,1.4734931E1,7.0740495E0,1.034366E1,1.0130979E1,1.3551094E1,7.5397058E0,1.4325904E1,1.6766228E1,2.2375206E1,1.3410119E1,1.6907335E1,1.5491577E1,1.9435833E1,2.1408604E1,2.807105E1],"split_indices":[4,4,4,4,4,5,5,4,5,5,5,1,4,1,1,0,1,1,4,1,1,1,1,4,4,1,1,5,0,5,0,0,5,0,0,1,1,0,5,0,5,0,5,5,3,5,5,5,5,4,0,5,3,1,1,5,4,4,0,4,5,0,0,0,0,0,0,0,0,0,0,0,0,0,0,0,0,0,0,0,0,0,0,0,0,0,0,0,0,0,0,0,0,0,0,0,0,0,0,0,0,0,0,0,0,0,0,0,0,0,0,0,0,0,0,0,0],"split_type":[0,0,0,0,0,0,0,0,0,0,0,0,0,0,0,0,0,0,0,0,0,0,0,0,0,0,0,0,0,0,0,0,0,0,0,0,0,0,0,0,0,0,0,0,0,0,0,0,0,0,0,0,0,0,0,0,0,0,0,0,0,0,0,0,0,0,0,0,0,0,0,0,0,0,0,0,0,0,0,0,0,0,0,0,0,0,0,0,0,0,0,0,0,0,0,0,0,0,0,0,0,0,0,0,0,0,0,0,0,0,0,0,0,0,0,0,0],"sum_hessian":[1.2E4,6.796E3,5.204E3,3.458E3,3.338E3,2.886E3,2.318E3,1.823E3,1.635E3,1.652E3,1.686E3,1.564E3,1.322E3,1.583E3,7.35E2,5.78E2,1.245E3,4.54E2,1.181E3,1.034E3,6.18E2,1.203E3,4.83E2,6.46E2,9.18E2,8.04E2,5.18E2,1.248E3,3.35E2,4.03E2,3.32E2,7E2,5.45E2,3.65E2,8.9E1,8.34E2,3.47E2,4.49E2,5.85E2,2.5E2,3.68E2,5.12E2,6.91E2,1.8E2,3.03E2,2.5E2,3.96E2,6.19E2,2.99E2,3.69E2,4.35E2,2.31E2,2.87E2,5.77E2,6.71E2,1.62E2,1.73E2,3.56E2,4.7E1,1.67E2,1.65E2,3.66E2,3.34E2,2.33E2,3.12E2,1.84E2,1.81E2,4.21E2,4.13E2,2.66E2,8.1E1,2.24E2,2.25E2,1.42E2,4.43E2,1.23E2,1.27E2,2.96E2,7.2E1,2.56E2,2.56E2,1.3E2,5.61E2,1.29E2,5.1E1,1.88E2,1.15E2,2.5E1,2.25E2,5.1E1,3.45E2,6.8E1,5.51E2,3.3E1,2.66E2,1.77E2,1.92E2,2.24E2,2.11E2,1.21E2,1.1E2,1.84E2,1.03E2,2.75E2,3.02E2,2.46E2,4.25E2,2.4E1,1.38E2,1.04E2,6.9E1,2.1E2,1.46E2,1.07E2,6E1,1.32E2,3.3E1],"tree_param":{"num_deleted":"0","num_feature":"7","num_nodes":"117","size_leaf_vector":"1"}},{"base_weights":[3.8834613E-2,-1.7170923E1,1.9445187E1,-2.3768238E1,-9.304135E0,1.1724674E1,3.4592155E1,-2.699467E1,-2.0156515E1,-1.3728333E1,-5.9643393E0,3.91559E0,1.6922026E1,3.0791967E1,4.4258823E1,-2.8564526E1,-2.5186045E1,-2.1068054E1,-1.5487435E1,-1.6272446E1,-1.1040765E1,-9.716173E0,-3.2476146E0,1.6253533E0,1.2027416E1,1.1189119E1,2.141462E1,2.7480669E1,4.086048E1,4.020302E1,5.5862232E1,-9.448576E0,-2.7804546E1,-2.7762531E1,-2.4195065E1,-2.3217657E1,-1.9508917E1,-1.6265553E1,-9.167576E0,-2.0428211E1,-1.4922116E1,-1.2311768E1,-5.2160645E0,-1.132694E1,-2.888065E0,-4.822794E0,3.6696374E0,-1.8320036E0,5.1637807E0,5.5062838E0,1.8880947E1,8.968136E0,1.9733473E1,1.9022825E1,3.3248837E1,2.4793156E1,3.530497E1,3.5703606E1,5.2556713E1,3.7290157E1,4.9038635E1,4.634366E1,1.8525995E1,-8.688837E0,-8.003279E0,-8.633462E0,-7.271054E0,-7.4725747E0,-6.4547977E0,-6.2532372E0,-7.6985593E0,-6.893444E0,-5.5870056E0,-5.2886667E0,-4.164222E0,-3.0264165E0,-6.538138E-1,-4.7601633E0,-7.155025E0,-4.6899858E0,-3.096184E0,-3.983323E0,-2.7108464E0,-2.5634122E0,2.0261776E-1,-2.6127503E0,-4.1050754E0,-1.7904793E0,5.7960546E-1,-2.214127E0,-8.197424E-1,-5.6175596E-1,2.9054024E0,-2.9720886E0,-2.6006177E-1,-3.3682346E-2,2.0903149E0,6.518345E-1,3.676063E0,4.44235E0,7.736613E0,2.1438115E0,4.4799137E0,4.1858954E0,7.4674606E0,4.5999966E0,7.0846844E0,7.311137E0,1.2422498E1,3.0874317E0,7.83971E0,9.083345E0,1.2052968E1,8.207058E0,1.1842131E1,1.4237527E1,1.8244404E1,1.0313695E1,1.3067016E1,1.2794445E1,1.6971313E1,7.7544885E0,1.4226944E1],"categories":[],"categories_nodes":[],"categories_segments":[],"categories_sizes":[],"default_left":[0,0,0,0,0,0,0,0,0,0,0,0,0,0,0,0,0,0,0,0,0,0,0,0,0,0,0,0,0,0,0,0,0,0,0,0,0,0,0,0,0,0,0,0,0,0,0,0,0,0,0,0,0,0,0,0,0,0,0,0,0,0,0,0,0,0,0,0,0,0,0,0,0,0,0,0,0,0,0,0,0,0,0,0,0,0,0,0,0,0,0,0,0,0,0,0,0,0,0,0,0,0,0,0,0,0,0,0,0,0,0,0,0,0,0,0,0,0,0,0,0,0,0],"id":3,"left_children":[1,3,5,7,9,11,13,15,17,19,21,23,25,27,29,31,33,35,37,39,41,43,45,47,49,51,53,55,57,59,61,-1,63,65,67,69,71,73,75,77,79,81,83,85,87,89,91,93,95,97,99,101,103,105,107,109,111,113,115,117,119,121,-1,-1,-1,-1,-1,-1,-1,-1,-1,-1,-1,-1,-1,-1,-1,-1,-1,-1,-1,-1,-1,-1,-1,-1,-1,-1,-1,-1,-1,-1,-1,-1,-1,-1,-1,-1,-1,-1,-1,-1,-1,-1,-1,-1,-1,-1,-1,-1,-1,-1,-1,-1,-1,-1,-1,-1,-1,-1,-1,-1,-1],"loss_changes":[4.0084115E6,3.299125E5,6.592665E5,3.9763625E4,4.2812625E4,1.5164634E5,6.858075E4,4.459375E3,6.636625E3,8.353531E3,1.6847562E4,2.7754564E4,5.7555938E4,4.455275E4,2.2931938E4,1.2825625E3,1.513875E3,4.12525E3,1.1835547E3,3.2810156E3,4.4517344E3,7.6112344E3,1.0499566E4,1.428608E4,1.4599961E4,1.857218E4,3.4946875E4,2.0867562E4,1.845E4,8.466125E3,4.7642812E3,0E0,2.42875E2,1.2970312E2,6.606875E2,2.7660938E3,2.0236875E3,5.356133E2,1.8385376E2,2.0250664E3,1.4290703E3,1.4621094E3,2.182543E3,3.3478906E3,2.001004E3,4.171301E3,5.985328E3,4.5973066E3,5.4924746E3,3.7970166E3,4.1199062E3,8.436043E3,5.705367E3,1.7396375E4,1.4203906E4,1.4743375E4,5.2E3,6.3781875E3,1.3660938E3,4.0666875E3,2.208375E3,1.315625E1,0E0,0E0,0E0,0E0,0E0,0E0,0E0,0E0,0E0,0E0,0E0,0E0,0E0,0E0,0E0,0E0,0E0,0E0,0E0,0E0,0E0,0E0,0E0,0E0,0E0,0E0,0E0,0E0,0E0,0E0,0E0,0E0,0E0,0E0,0E0,0E0,0E0,0E0,0E0,0E0,0E0,0E0,0E0,0E0,0E0,0E0,0E0,0E0,0E0,0E0,0E0,0E0,0E0,0E0,0E0,0E0,0E0,0E0,0E0,0E0,0E0],"parents":[2147483647,0,0,1,1,2,2,3,3,4,4,5,5,6,6,7,7,8,8,9,9,10,10,11,11,12,12,13,13,14,14,15,15,16,16,17,17,18,18,19,19,20,20,21,21,22,22,23,23,24,24,25,25,26,26,27,27,28,28,29,29,30,30,32,32,33,33,34,34,35,35,36,36,37,37,38,38,39,39,40,40,41,41,42,42,43,43,44,44,45,45,46,46,47,47,48,48,49,49,50,50,51,51,52,52,53,53,54,54,55,55,56,56,57,57,58,58,59,59,60,60,61,61],"right_children":[2,4,6,8,10,12,14,16,18,20,22,24,26,28,30,32,34,36,38,40,42,44,46,48,50,52,54,56,58,60,62,-1,64,66,68,70,72,74,76,78,80,82,84,86,88,90,92,94,96,98,100,102,104,106,108,110,112,114,116,118,120,122,-1,-1,-1,-1,-1,-1,-1,-1,-1,-1,-1,-1,-1,-1,-1,-1,-1,-1,-1,-1,-1,-1,-1,-1,-1,-1,-1,-1,-1,-1,-1,-1,-1,-1,-1,-1,-1,-1,-1,-1,-1,-1,-1,-1,-1,-1,-1,-1,-1,-1,-1,-1,-1,-1,-1,-1,-1,-1,-1,-1,-1],"split_conditions":[1.7E1,1E1,2.6E1,6E0,1.3E1,1E2,1.11E2,4E0,9.3E1,9.2E1,9.4E1,5.8E1,2.2E1,5.8E1,8.6E1,2E0,8.2E1,3.7E1,6.9E1,2.8E1,6.3E1,6.3E1,6E1,2E1,1E0,5.9E1,6.4E1,2.9E1,8.8E1,5.5E1,3.6E1,-9.448576E0,8.3E1,5.7E1,5.8E1,1E0,8.3E1,9E0,9.9E1,1E0,6.8E1,9.8E1,8.6E1,1E0,8.2E1,3.2E1,1E0,9.1E1,9.5E1,2.1E1,7.2E1,1.06E2,1E0,1.06E2,1E0,1E2,3.3E1,1.04E2,7.1E1,1.15E2,1.14E2,2.2E1,1.8525995E1,-8.688837E0,-8.003279E0,-8.633462E0,-7.271054E0,-7.4725747E0,-6.4547977E0,-6.2532372E0,-7.6985593E0,-6.893444E0,-5.5870056E0,-5.2886667E0,-4.164222E0,-3.0264165E0,-6.538138E-1,-4.7601633E0,-7.155025E0,-4.6899858E0,-3.096184E0,-3.983323E0,-2.7108464E0,-2.5634122E0,2.0261776E-1,-2.6127503E0,-4.1050754E0,-1.7904793E0,5.7960546E-1,-2.214127E0,-8.197424E-1,-5.6175596E-1,2.9054024E0,-2.9720886E0,-2.6006177E-1,-3.3682346E-2,2.0903149E0,6.518345E-1,3.676063E0,4.44235E0,7.736613E0,2.1438115E0,4.4799137E0,4.1858954E0,7.4674606E0,4.5999966E0,7.0846844E0,7.311137E0,1.2422498E1,3.0874317E0,7.83971E0,9.083345E0,1.2052968E1,8.207058E0,1.1842131E1,1.4237527E1,1.8244404E1,1.0313695E1,1.3067016E1,1.2794445E1,1.6971313E1,7.7544885E0,1.4226944E1],"split_indices":[4,4,4,4,4,5,5,4,5,5,5,1,4,1,3,4,5,1,1,1,1,1,1,4,0,1,1,4,3,1,1,0,5,1,1,0,5,4,5,0,1,5,3,0,3,1,0,5,5,4,1,5,0,5,0,5,1,5,1,5,5,1,0,0,0,0,0,0,0,0,0,0,0,0,0,0,0,0,0,0,0,0,0,0,0,0,0,0,0,0,0,0,0,0,0,0,0,0,0,0,0,0,0,0,0,0,0,0,0,0,0,0,0,0,0,0,0,0,0,0,0,0,0],"split_type":[0,0,0,0,0,0,0,0,0,0,0,0,0,0,0,0,0,0,0,0,0,0,0,0,0,0,0,0,0,0,0,0,0,0,0,0,0,0,0,0,0,0,0,0,0,0,0,0,0,0,0,0,0,0,0,0,0,0,0,0,0,0,0,0,0,0,0,0,0,0,0,0,0,0,0,0,0,0,0,0,0,0,0,0,0,0,0,0,0,0,0,0,0,0,0,0,0,0,0,0,0,0,0,0,0,0,0,0,0,0,0,0,0,0,0,0,0,0,0,0,0,0,0],"sum_hessian":[1.2E4,6.36E3,5.64E3,3.458E3,2.902E3,3.737E3,1.903E3,1.823E3,1.635E3,1.247E3,1.655E3,1.494E3,2.243E3,1.369E3,5.34E2,9.68E2,8.55E2,1.365E3,2.7E2,6.38E2,6.09E2,6.94E2,9.61E2,1.166E3,3.28E2,9.87E2,1.256E3,1.033E3,3.36E2,3.99E2,1.35E2,1.91E2,7.77E2,2.3E2,6.25E2,5.68E2,7.97E2,2.39E2,3.1E1,1.53E2,4.85E2,4.99E2,1.1E2,5.61E2,1.33E2,7.83E2,1.78E2,5.9E2,5.76E2,1.69E2,1.59E2,7.85E2,2.02E2,1.047E3,2.09E2,7.72E2,2.61E2,2.36E2,1E2,3.04E2,9.5E1,5.5E1,8E1,3.71E2,4.06E2,1.73E2,5.7E1,4.87E2,1.38E2,2.93E2,2.75E2,1.57E2,6.4E2,1.48E2,9.1E1,2.7E1,4E0,6.8E1,8.5E1,4.18E2,6.7E1,3.83E2,1.16E2,7E1,4E1,2.68E2,2.93E2,8.1E1,5.2E1,3.51E2,4.32E2,9.3E1,8.5E1,6.2E1,5.28E2,1.47E2,4.29E2,1.14E2,5.5E1,1.02E2,5.7E1,6.03E2,1.82E2,9.7E1,1.05E2,5.83E2,4.64E2,1.02E2,1.07E2,6.6E1,7.06E2,1.32E2,1.29E2,7.6E1,1.6E2,6.6E1,3.4E1,2.12E2,9.2E1,5.5E1,4E1,4E0,5.1E1],"tree_param":{"num_deleted":"0","num_feature":"7","num_nodes":"123","size_leaf_vector":"1"}},{"base_weights":[3.638025E-2,-9.716798E0,1.706984E1,-1.5437158E1,-2.2904913E0,1.1388596E1,2.4299963E1,-1.8449377E1,-1.2191376E1,-5.3895135E0,1.6510476E0,8.865439E0,1.7899618E1,2.0158747E1,3.0872997E1,-2.0022144E1,-1.7231005E1,-1.42834E1,-1.0460867E1,-8.566314E0,-3.4869876E0,-2.6671305E0,3.357809E0,3.6475418E0,1.16132965E1,1.0401604E1,2.0705519E1,1.3058838E1,2.3081604E1,2.8263165E1,4.0800156E1,-6.628766E0,-1.9484638E1,-1.802354E1,-1.5285271E1,-1.8487892E1,-1.3528816E1,-1.2607766E1,-9.070094E0,-4.9318323E0,-1.2401262E1,-5.922424E0,-1.1678995E0,1.0523677E0,-6.3030806E0,-7.52878E-1,5.1309743E0,7.702411E0,-7.5074357E-1,5.718287E0,1.3533433E1,1.6056057E1,5.7789783E0,1.8971571E1,3.0038229E1,1.1089097E1,1.802117E1,2.0617441E1,3.2829556E1,2.261073E1,3.2020744E1,3.1233128E1,4.4657234E1,-6.007225E0,-5.382042E0,-5.015765E0,-5.8065996E0,-4.75467E0,-3.5214932E0,-5.6253963E0,-2.843834E0,-4.2467394E0,-3.0004947E0,-3.1356664E0,-4.4206953E0,-3.5021276E0,-2.407833E0,-1.9595374E0,-1.9918285E-1,-5.7033167E0,-3.123407E0,-2.0059497E0,-1.4391643E-1,-8.0364436E-1,7.7694744E-1,-5.6194407E-1,7.2428817E-1,-2.388533E0,-3.7180877E-1,-5.575359E-1,1.8446847E0,1.0197465E0,2.9477024E0,1.6602225E0,3.2633402E0,-1.6962911E0,6.132318E-1,1.2136402E0,4.004117E0,3.3252594E0,5.515619E0,5.3312075E-1,4.968891E0,5.321148E-1,3.8382635E0,1.2331277E0,6.005977E0,6.3366013E0,9.732349E0,2.6517434E0,4.568636E0,4.88899E0,6.506669E0,5.65853E0,8.458788E0,8.895423E0,1.2093929E1,6.0388966E0,7.9068766E0,8.69872E0,1.1266842E1,7.5322623E0,1.0347924E1,5.441025E-1,1.3514399E1],"categories":[],"categories_nodes":[],"categories_segments":[],"categories_sizes":[],"default_left":[0,0,0,0,0,0,0,0,0,0,0,0,0,0,0,0,0,0,0,0,0,0,0,0,0,0,0,0,0,0,0,0,0,0,0,0,0,0,0,0,0,0,0,0,0,0,0,0,0,0,0,0,0,0,0,0,0,0,0,0,0,0,0,0,0,0,0,0,0,0,0,0,0,0,0,0,0,0,0,0,0,0,0,0,0,0,0,0,0,0,0,0,0,0,0,0,0,0,0,0,0,0,0,0,0,0,0,0,0,0,0,0,0,0,0,0,0,0,0,0,0,0,0,0,0],"id":4,"left_children":[1,3,5,7,9,11,13,15,17,19,21,23,25,27,29,31,33,35,37,39,41,43,45,47,49,51,53,55,57,59,61,-1,63,65,67,69,71,73,75,77,79,81,83,85,87,89,91,93,95,97,99,101,103,105,107,109,111,113,115,117,119,121,123,-1,-1,-1,-1,-1,-1,-1,-1,-1,-1,-1,-1,-1,-1,-1,-1,-1,-1,-1,-1,-1,-1,-1,-1,-1,-1,-1,-1,-1,-1,-1,-1,-1,-1,-1,-1,-1,-1,-1,-1,-1,-1,-1,-1,-1,-1,-1,-1,-1,-1,-1,-1,-1,-1,-1,-1,-1,-1,-1,-1,-1,-1],"loss_changes":[1.9938964E6,3.2418075E5,1.7922588E5,4.192375E4,4.058685E4,4.007428E4,5.1695125E4,3.935875E3,7.3735E3,1.1211871E4,1.0791412E4,2.5292938E4,1.4154047E4,2.4227469E4,1.8044812E4,6.495625E2,1.67675E3,2.7258281E3,3.2925156E3,9.639715E3,6.572993E3,5.6190557E3,7.649948E3,1.0902643E4,1.3018969E4,4.8212383E3,7.4566094E3,3.191914E3,1.9404344E4,1.18073125E4,4.2141562E3,0E0,2.8896875E2,1.229375E3,5.5964844E2,1.5447656E2,1.625375E3,1.8916641E3,1.7981602E3,2.4470762E3,4.2477383E3,2.3588984E3,3.4021436E3,8.252954E2,1.753959E3,2.4302915E3,5.926162E3,2.129332E3,4.0407427E3,3.5958096E3,1.0158703E4,5.785742E2,2.9275813E3,6.47675E3,9.4308594E2,2.2032285E3,2.6008008E2,8.382781E3,2.7765469E3,1.6904688E3,4.8051562E3,7.251172E1,1.6928906E3,0E0,0E0,0E0,0E0,0E0,0E0,0E0,0E0,0E0,0E0,0E0,0E0,0E0,0E0,0E0,0E0,0E0,0E0,0E0,0E0,0E0,0E0,0E0,0E0,0E0,0E0,0E0,0E0,0E0,0E0,0E0,0E0,0E0,0E0,0E0,0E0,0E0,0E0,0E0,0E0,0E0,0E0,0E0,0E0,0E0,0E0,0E0,0E0,0E0,0E0,0E0,0E0,0E0,0E0,0E0,0E0,0E0,0E0,0E0,0E0,0E0,0E0],"parents":[2147483647,0,0,1,1,2,2,3,3,4,4,5,5,6,6,7,7,8,8,9,9,10,10,11,11,12,12,13,13,14,14,15,15,16,16,17,17,18,18,19,19,20,20,21,21,22,22,23,23,24,24,25,25,26,26,27,27,28,28,29,29,30,30,32,32,33,33,34,34,35,35,36,36,37,37,38,38,39,39,40,40,41,41,42,42,43,43,44,44,45,45,46,46,47,47,48,48,49,49,50,50,51,51,52,52,53,53,54,54,55,55,56,56,57,57,58,58,59,59,60,60,61,61,62,62],"right_children":[2,4,6,8,10,12,14,16,18,20,22,24,26,28,30,32,34,36,38,40,42,44,46,48,50,52,54,56,58,60,62,-1,64,66,68,70,72,74,76,78,80,82,84,86,88,90,92,94,96,98,100,102,104,106,108,110,112,114,116,118,120,122,124,-1,-1,-1,-1,-1,-1,-1,-1,-1,-1,-1,-1,-1,-1,-1,-1,-1,-1,-1,-1,-1,-1,-1,-1,-1,-1,-1,-1,-1,-1,-1,-1,-1,-1,-1,-1,-1,-1,-1,-1,-1,-1,-1,-1,-1,-1,-1,-1,-1,-1,-1,-1,-1,-1,-1,-1,-1,-1,-1,-1,-1,-1],"split_conditions":[2E1,1.2E1,1.06E2,7E0,9.7E1,2.6E1,2.8E1,4E0,8.9E1,3.2E1,3E1,3.3E1,3E1,3E1,9E1,2E0,5.4E1,8.2E1,3.5E1,1E0,1.5E1,1E0,1.6E1,1E0,9.8E1,1E0,9.3E1,1.11E2,9.1E1,3.4E1,3.2E1,-6.628766E0,8.6E1,1E0,9.1E1,7.4E1,6.4E1,1E0,9E0,1.7E1,9E1,9.6E1,6.2E1,1.6E1,1.03E2,1.03E2,8.8E1,2.3E1,8.2E1,6.8E1,8.3E1,9.6E1,8.8E1,9.8E1,1.01E2,2.6E1,1.14E2,1.12E2,6.5E1,1.12E2,1E0,2.5E1,1E0,-6.007225E0,-5.382042E0,-5.015765E0,-5.8065996E0,-4.75467E0,-3.5214932E0,-5.6253963E0,-2.843834E0,-4.2467394E0,-3.0004947E0,-3.1356664E0,-4.4206953E0,-3.5021276E0,-2.407833E0,-1.9595374E0,-1.9918285E-1,-5.7033167E0,-3.123407E0,-2.0059497E0,-1.4391643E-1,-8.0364436E-1,7.7694744E-1,-5.6194407E-1,7.2428817E-1,-2.388533E0,-3.7180877E-1,-5.575359E-1,1.8446847E0,1.0197465E0,2.9477024E0,1.6602225E0,3.2633402E0,-1.6962911E0,6.132318E-1,1.2136402E0,4.004117E0,3.3252594E0,5.515619E0,5.3312075E-1,4.968891E0,5.321148E-1,3.8382635E0,1.2331277E0,6.005977E0,6.3366013E0,9.732349E0,2.6517434E0,4.568636E0,4.88899E0,6.506669E0,5.65853E0,8.458788E0,8.895423E0,1.2093929E1,6.0388966E0,7.9068766E0,8.69872E0,1.1266842E1,7.5322623E0,1.0347924E1,5.441025E-1,1.3514399E1],"split_indices":[4,4,5,4,5,4,4,4,5,1,1,1,1,1,3,4,1,5,1,0,4,0,4,0,5,0,3,5,3,1,1,0,5,0,5,1,1,0,4,4,5,3,1,4,5,5,3,4,3,1,3,5,3,5,5,4,5,5,1,5,0,1,0,0,0,0,0,0,0,0,0,0,0,0,0,0,0,0,0,0,0,0,0,0,0,0,0,0,0,0,0,0,0,0,0,0,0,0,0,0,0,0,0,0,0,0,0,0,0,0,0,0,0,0,0,0,0,0,0,0,0,0,0,0,0],"split_type":[0,0,0,0,0,0,0,0,0,0,0,0,0,0,0,0,0,0,0,0,0,0,0,0,0,0,0,0,0,0,0,0,0,0,0,0,0,0,0,0,0,0,0,0,0,0,0,0,0,0,0,0,0,0,0,0,0,0,0,0,0,0,0,0,0,0,0,0,0,0,0,0,0,0,0,0,0,0,0,0,0,0,0,0,0,0,0,0,0,0,0,0,0,0,0,0,0,0,0,0,0,0,0,0,0,0,0,0,0,0,0,0,0,0,0,0,0,0,0,0,0,0,0,0,0],"sum_hessian":[1.2E4,7.631E3,4.369E3,4.31E3,3.321E3,2.448E3,1.921E3,2.233E3,2.077E3,1.859E3,1.462E3,1.766E3,6.82E2,1.181E3,7.4E2,9.68E2,1.265E3,9.37E2,1.14E3,6.95E2,1.164E3,4.14E2,1.048E3,6.1E2,1.156E3,1.87E2,4.95E2,3.46E2,8.35E2,5.89E2,1.51E2,1.91E2,7.77E2,8.93E2,3.72E2,1.39E2,7.98E2,4.45E2,6.95E2,3.58E2,3.37E2,5.67E2,5.97E2,2.05E2,2.09E2,3.16E2,7.32E2,3.17E2,2.93E2,2.85E2,8.71E2,8.3E1,1.04E2,4.2E2,7.5E1,2.5E2,9.6E1,6.69E2,1.66E2,2.38E2,3.51E2,4.6E1,1.05E2,5.67E2,2.1E2,4.58E2,4.35E2,3.18E2,5.4E1,1.34E2,5E0,6.75E2,1.23E2,2.24E2,2.21E2,1.96E2,4.99E2,2.6E2,9.8E1,7.6E1,2.61E2,4.97E2,7E1,4.26E2,1.71E2,6.5E1,1.4E2,1.57E2,5.2E1,2.73E2,4.3E1,5.36E2,1.96E2,1.9E2,1.27E2,1.06E2,1.87E2,2.35E2,5E1,5.81E2,2.9E2,3E0,8E1,6.7E1,3.7E1,2.8E1,3.92E2,1.8E1,5.7E1,1.64E2,8.6E1,6.9E1,2.7E1,5.46E2,1.23E2,1.2E2,4.6E1,1.47E2,9.1E1,2.31E2,1.2E2,1.9E1,2.7E1,1E0,1.04E2],"tree_param":{"num_deleted":"0","num_feature":"7","num_nodes":"125","size_leaf_vector":"1"}},{"base_weights":[3.328625E-2,-7.374123E0,1.115134E1,-1.131478E1,-2.7514915E0,7.1684365E0,1.720351E1,-1.2645724E1,-8.551519E0,-5.892102E0,-9.1352755E-1,5.057199E0,1.1597978E1,1.4539333E1,2.2913597E1,-1.517345E1,-1.207654E1,-8.973872E0,-4.586014E0,-1.3140167E1,-5.487478E0,-1.6407489E0,5.2852287E0,1.5364543E0,7.2047772E0,1.0312298E1,2.094187E1,1.309794E1,2.2647448E1,2.0363493E1,3.004438E1,-1.6315916E1,-1.4356284E1,-1.3507876E1,-1.1394289E1,-1.12727375E1,-8.389359E0,-7.5816984E0,-2.3171628E0,-1.7169199E1,-1.0293518E1,-6.9515557E0,-3.7554026E0,-5.6952953E0,-5.817007E-1,7.14743E-1,9.528709E0,5.3039365E0,-9.4512624E-1,5.7538195E0,1.3008813E1,8.633113E0,1.5569154E1,1.5487439E1,2.5579115E1,9.656581E0,1.5511633E1,1.6472784E1,2.8002752E1,1.9147537E1,3.228756E1,2.4479683E1,3.595506E1,-4.438134E0,-5.384009E0,-4.313533E0,-1.2028239E0,-4.180806E0,-3.5646648E0,-3.5237024E0,-2.6447935E0,-2.7682993E0,-3.8880413E0,-2.5816388E0,-7.038555E-1,-2.375269E0,-8.321652E-1,-1.0893587E0,2.5029874E-1,-3.4833438E0,-6.0301476E0,-3.2963839E0,-1.358131E0,-1.5241181E0,-2.6527445E0,-1.4987488E0,-2.153186E-1,-3.3140595E0,-1.4988805E0,-4.715147E-1,6.8889785E-1,-4.965658E-2,2.3091903E0,2.3209684E0,3.8330324E0,9.555547E-1,2.3629973E0,-1.0944302E0,4.3055308E-1,1.1268748E0,2.8157794E0,3.2624285E0,6.248897E0,1.4133873E0,2.9609766E0,3.8690624E0,6.634497E0,3.9897988E0,6.236769E0,6.7953105E0,9.797426E0,1.1281581E0,3.3433452E0,4.1802707E0,6.227155E0,3.0303347E0,5.803973E0,7.6610146E0,1.0199515E1,5.0233083E0,6.98173E0,7.8622603E0,1.3287101E1,6.808356E0,9.054108E0,6.123172E0,1.1182343E1],"categories":[],"categories_nodes":[],"categories_segments":[],"categories_sizes":[],"default_left":[0,0,0,0,0,0,0,0,0,0,0,0,0,0,0,0,0,0,0,0,0,0,0,0,0,0,0,0,0,0,0,0,0,0,0,0,0,0,0,0,0,0,0,0,0,0,0,0,0,0,0,0,0,0,0,0,0,0,0,0,0,0,0,0,0,0,0,0,0,0,0,0,0,0,0,0,0,0,0,0,0,0,0,0,0,0,0,0,0,0,0,0,0,0,0,0,0,0,0,0,0,0,0,0,0,0,0,0,0,0,0,0,0,0,0,0,0,0,0,0,0,0,0,0,0,0,0],"id":5,"left_children":[1,3,5,7,9,11,13,15,17,19,21,23,25,27,29,31,33,35,37,39,41,43,45,47,49,51,53,55,57,59,61,63,65,67,69,71,73,75,77,79,81,83,85,87,89,91,93,95,97,99,101,103,105,107,109,111,113,115,117,119,121,123,125,-1,-1,-1,-1,-1,-1,-1,-1,-1,-1,-1,-1,-1,-1,-1,-1,-1,-1,-1,-1,-1,-1,-1,-1,-1,-1,-1,-1,-1,-1,-1,-1,-1,-1,-1,-1,-1,-1,-1,-1,-1,-1,-1,-1,-1,-1,-1,-1,-1,-1,-1,-1,-1,-1,-1,-1,-1,-1,-1,-1,-1,-1,-1,-1],"loss_changes":[9.884363E5,1.3118019E5,1.1555756E5,1.41909375E4,1.9135658E4,2.7024188E4,2.863175E4,3.5891562E3,2.0808672E3,3.5175664E3,9.44364E3,1.483132E4,1.1004414E4,1.4908125E4,1.0371469E4,2.1202344E2,1.94075E3,1.4426406E3,8.2523047E2,5.572998E2,2.9180664E3,8.043569E3,4.2600386E3,6.9702505E3,1.0190844E4,7.1304062E3,2.4367148E3,9.045375E3,5.9868203E3,5.877375E3,4.2837344E3,2.1109375E2,8.15625E0,3.125703E2,1.2182656E3,6.7065234E2,1.1760586E3,6.3620605E1,3.0119333E2,1.7391748E2,1.10430176E2,2.177082E3,2.0085327E3,1.3962734E3,4.2405024E3,6.5894965E2,5.647471E2,1.5883955E3,2.90049E3,7.0532715E3,3.8291719E3,2.9899375E3,3.1782656E3,3.4996582E2,4.8320312E2,3.9847852E3,5.080797E3,1.5074863E3,6.546953E2,3.6646719E3,1.7583516E3,1.6991406E2,7.569219E2,0E0,0E0,0E0,0E0,0E0,0E0,0E0,0E0,0E0,0E0,0E0,0E0,0E0,0E0,0E0,0E0,0E0,0E0,0E0,0E0,0E0,0E0,0E0,0E0,0E0,0E0,0E0,0E0,0E0,0E0,0E0,0E0,0E0,0E0,0E0,0E0,0E0,0E0,0E0,0E0,0E0,0E0,0E0,0E0,0E0,0E0,0E0,0E0,0E0,0E0,0E0,0E0,0E0,0E0,0E0,0E0,0E0,0E0,0E0,0E0,0E0,0E0,0E0,0E0],"parents":[2147483647,0,0,1,1,2,2,3,3,4,4,5,5,6,6,7,7,8,8,9,9,10,10,11,11,12,12,13,13,14,14,15,15,16,16,17,17,18,18,19,19,20,20,21,21,22,22,23,23,24,24,25,25,26,26,27,27,28,28,29,29,30,30,31,31,32,32,33,33,34,34,35,35,36,36,37,37,38,38,39,39,40,40,41,41,42,42,43,43,44,44,45,45,46,46,47,47,48,48,49,49,50,50,51,51,52,52,53,53,54,54,55,55,56,56,57,57,58,58,59,59,60,60,61,61,62,62],"right_children":[2,4,6,8,10,12,14,16,18,20,22,24,26,28,30,32,34,36,38,40,42,44,46,48,50,52,54,56,58,60,62,64,66,68,70,72,74,76,78,80,82,84,86,88,90,92,94,96,98,100,102,104,106,108,110,112,114,116,118,120,122,124,126,-1,-1,-1,-1,-1,-1,-1,-1,-1,-1,-1,-1,-1,-1,-1,-1,-1,-1,-1,-1,-1,-1,-1,-1,-1,-1,-1,-1,-1,-1,-1,-1,-1,-1,-1,-1,-1,-1,-1,-1,-1,-1,-1,-1,-1,-1,-1,-1,-1,-1,-1,-1,-1,-1,-1,-1,-1,-1,-1,-1,-1,-1,-1,-1],"split_conditions":[1.9E1,1.1E1,2.6E1,8E0,1.4E1,1.05E2,2.9E1,8E1,7.1E1,8.4E1,6.9E1,3.4E1,6.8E1,6.5E1,5.7E1,3.4E1,4E0,2.6E1,1E0,3.3E1,4.1E1,9.2E1,1E0,6.8E1,9E1,1.1E2,1E0,1.06E2,1E0,1.16E2,1E0,1E0,7.9E1,5.8E1,9.2E1,1E0,9.9E1,9.8E1,9.3E1,1E0,9.6E1,1E0,8.5E1,8.6E1,1.01E2,1.02E2,7.6E1,2.2E1,2.6E1,2.3E1,6.8E1,2.7E1,8.6E1,1.1E2,1.1E2,2.6E1,8.7E1,1.05E2,7.5E1,3E1,1.82E2,1.13E2,7.3E1,-4.438134E0,-5.384009E0,-4.313533E0,-1.2028239E0,-4.180806E0,-3.5646648E0,-3.5237024E0,-2.6447935E0,-2.7682993E0,-3.8880413E0,-2.5816388E0,-7.038555E-1,-2.375269E0,-8.321652E-1,-1.0893587E0,2.5029874E-1,-3.4833438E0,-6.0301476E0,-3.2963839E0,-1.358131E0,-1.5241181E0,-2.6527445E0,-1.4987488E0,-2.153186E-1,-3.3140595E0,-1.4988805E0,-4.715147E-1,6.8889785E-1,-4.965658E-2,2.3091903E0,2.3209684E0,3.8330324E0,9.555547E-1,2.3629973E0,-1.0944302E0,4.3055308E-1,1.1268748E0,2.8157794E0,3.2624285E0,6.248897E0,1.4133873E0,2.9609766E0,3.8690624E0,6.634497E0,3.9897988E0,6.236769E0,6.7953105E0,9.797426E0,1.1281581E0,3.3433452E0,4.1802707E0,6.227155E0,3.0303347E0,5.803973E0,7.6610146E0,1.0199515E1,5.0233083E0,6.98173E0,7.8622603E0,1.3287101E1,6.808356E0,9.054108E0,6.123172E0,1.1182343E1],"split_indices":[4,4,4,4,4,5,4,5,1,5,1,1,1,1,1,1,4,1,0,1,1,5,0,3,3,5,0,5,0,5,0,0,1,1,5,0,5,5,5,0,3,0,3,5,5,5,1,4,1,4,1,1,3,5,5,1,3,5,1,4,2,5,3,0,0,0,0,0,0,0,0,0,0,0,0,0,0,0,0,0,0,0,0,0,0,0,0,0,0,0,0,0,0,0,0,0,0,0,0,0,0,0,0,0,0,0,0,0,0,0,0,0,0,0,0,0,0,0,0,0,0,0,0,0,0,0,0],"split_type":[0,0,0,0,0,0,0,0,0,0,0,0,0,0,0,0,0,0,0,0,0,0,0,0,0,0,0,0,0,0,0,0,0,0,0,0,0,0,0,0,0,0,0,0,0,0,0,0,0,0,0,0,0,0,0,0,0,0,0,0,0,0,0,0,0,0,0,0,0,0,0,0,0,0,0,0,0,0,0,0,0,0,0,0,0,0,0,0,0,0,0,0,0,0,0,0,0,0,0,0,0,0,0,0,0,0,0,0,0,0,0,0,0,0,0,0,0,0,0,0,0,0,0,0,0,0,0],"sum_hessian":[1.2E4,7.202E3,4.798E3,3.887E3,3.315E3,2.895E3,1.903E3,2.621E3,1.266E3,1.223E3,2.092E3,1.962E3,9.33E2,1.3E3,6.03E2,4.77E2,2.144E3,1.143E3,1.23E2,6.3E1,1.16E3,1.873E3,2.19E2,7.44E2,1.218E3,8.22E2,1.11E2,1.106E3,1.94E2,4.47E2,1.56E2,1.91E2,2.86E2,6.86E2,1.458E3,2.28E2,9.15E2,5.2E1,7.1E1,2.4E1,3.9E1,6.27E2,5.33E2,3.87E2,1.486E3,1.06E2,1.13E2,2.95E2,4.49E2,9.76E2,2.42E2,6.25E2,1.97E2,5.3E1,5.8E1,4.58E2,6.48E2,9.2E1,1.02E2,4.08E2,3.9E1,8.3E1,7.3E1,1.04E2,8.7E1,2.85E2,1E0,5.37E2,1.49E2,1.28E3,1.78E2,1.06E2,1.22E2,8.83E2,3.2E1,4.8E1,4E0,5E1,2.1E1,1E1,1.4E1,3.4E1,5E0,3.17E2,3.1E2,3.78E2,1.55E2,4.3E1,3.44E2,1.106E3,3.8E2,9.5E1,1.1E1,7.5E1,3.8E1,1.63E2,1.32E2,2.1E2,2.39E2,6.31E2,3.45E2,1.92E2,5E1,1.51E2,4.74E2,1.42E2,5.5E1,4E1,1.3E1,4.4E1,1.4E1,9.3E1,3.65E2,5.01E2,1.47E2,3E1,6.2E1,7.6E1,2.6E1,2.61E2,1.47E2,2.8E1,1.1E1,6.7E1,1.6E1,7E0,6.6E1],"tree_param":{"num_deleted":"0","num_feature":"7","num_nodes":"127","size_leaf_vector":"1"}},{"base_weights":[3.2150995E-2,-5.228395E0,7.8651433E0,-7.487026E0,-1.2300037E0,3.0330527E0,1.1116782E1,-8.664636E0,-5.175574E0,-2.988194E0,4.83629E-1,1.9971062E0,7.9052687E0,1.0218025E1,1.9809101E1,-9.911104E0,-7.822719E0,-7.2062263E0,-4.5310163E0,-5.0667167E0,-1.9993106E0,-2.3378696E0,1.747799E0,-9.64856E-1,3.0470023E0,4.5453424E0,1.116063E1,9.172318E0,1.7184978E1,1.7939028E1,3.4109375E1,-1.1006573E1,-9.107174E0,-8.191449E0,-5.4218855E0,-5.3186774E0,-8.9292965E0,-4.9048977E0,-1.2781916E0,-2.728725E0,-7.4142075E0,-2.5973048E0,1.9048883E0,7.6583797E-1,-5.9218597E0,-2.1703634E0,2.6795845E0,-1.7427465E0,1.6786778E0,2.4548843E0,7.663994E0,2.2465885E0,6.900117E0,8.766772E0,1.5483052E1,8.340948E0,1.6528023E1,1.3140278E1,2.0923466E1,1.5287273E1,2.3795958E1,2.2149757E1,3.8981693E1,-2.957146E0,-3.718522E0,-3.218168E0,-2.5849147E0,-2.5724792E0,-2.0774596E0,-2.1314178E0,-1.1484478E0,-1.2798278E0,-1.8708891E0,-3.5736446E0,-2.2381842E0,-1.0706075E0,-1.6639333E0,-1.0489694E0,3.1016073E-1,-2.4675305E0,-7.403234E-1,-2.875076E0,-1.4251623E0,-1.5965754E0,-6.546485E-1,8.865437E-2,1.8360778E0,-1.306716E-1,1.1243016E0,-3.03434E0,-1.0111878E0,4.82878E-1,-1.0712675E0,5.243756E-1,2.086425E0,-1.3011112E0,-3.4530497E-1,-4.0613806E-1,1.0562172E0,1.400626E0,4.3813375E-1,2.0436609E0,4.7268543E0,4.7832415E-1,2.841672E0,1.5029074E0,2.614339E0,1.8879988E0,3.378212E0,3.501864E0,5.6012588E0,1.4972022E0,2.8367727E0,3.9359589E0,5.6876793E0,3.3634217E0,5.423298E0,5.436776E0,7.582372E0,3.7589355E0,6.090289E0,3.7758374E0,7.4382544E0,7.0142903E0,1.4756494E0,4.6397324E0,1.222061E1],"categories":[],"categories_nodes":[],"categories_segments":[],"categories_sizes":[],"default_left":[0,0,0,0,0,0,0,0,0,0,0,0,0,0,0,0,0,0,0,0,0,0,0,0,0,0,0,0,0,0,0,0,0,0,0,0,0,0,0,0,0,0,0,0,0,0,0,0,0,0,0,0,0,0,0,0,0,0,0,0,0,0,0,0,0,0,0,0,0,0,0,0,0,0,0,0,0,0,0,0,0,0,0,0,0,0,0,0,0,0,0,0,0,0,0,0,0,0,0,0,0,0,0,0,0,0,0,0,0,0,0,0,0,0,0,0,0,0,0,0,0,0,0,0,0,0,0],"id":6,"left_children":[1,3,5,7,9,11,13,15,17,19,21,23,25,27,29,31,33,35,37,39,41,43,45,47,49,51,53,55,57,59,61,63,65,67,69,71,73,75,77,79,81,83,85,87,89,91,93,95,97,99,101,103,105,107,109,111,113,115,117,119,121,123,125,-1,-1,-1,-1,-1,-1,-1,-1,-1,-1,-1,-1,-1,-1,-1,-1,-1,-1,-1,-1,-1,-1,-1,-1,-1,-1,-1,-1,-1,-1,-1,-1,-1,-1,-1,-1,-1,-1,-1,-1,-1,-1,-1,-1,-1,-1,-1,-1,-1,-1,-1,-1,-1,-1,-1,-1,-1,-1,-1,-1,-1,-1,-1,-1],"loss_changes":[4.9455212E5,6.4832594E4,7.573059E4,1.2443625E4,7.813875E3,9.781129E3,2.2312594E4,3.110625E3,1.9974102E3,2.6208037E3,4.690932E3,4.984764E3,3.6681152E3,1.8886344E4,6.5818516E3,9.750703E2,1.5649922E3,1.1623926E3,1.4288105E3,2.240995E3,2.0337922E3,4.5318633E3,3.3208215E3,8.66605E2,3.2152754E3,8.99303E2,1.6439922E3,1.3774484E4,4.8662188E3,3.3636953E3,8.846992E2,6.9495703E2,4.7209766E2,7.051328E2,6.298887E2,1.4725195E2,7.566338E2,8.87166E2,6.3448364E2,2.7806763E2,1.1390654E3,8.4123926E2,7.851478E2,7.861791E2,1.9875127E3,9.321861E2,2.9113848E3,4.93922E2,5.410177E2,2.3048164E3,8.163076E2,3.9487497E2,2.4102368E2,6.261846E2,5.1082324E2,7.5955E3,1.656793E3,1.3782383E3,1.6746641E3,2.0682656E3,5.0480078E2,1.18356445E2,1.9478125E2,0E0,0E0,0E0,0E0,0E0,0E0,0E0,0E0,0E0,0E0,0E0,0E0,0E0,0E0,0E0,0E0,0E0,0E0,0E0,0E0,0E0,0E0,0E0,0E0,0E0,0E0,0E0,0E0,0E0,0E0,0E0,0E0,0E0,0E0,0E0,0E0,0E0,0E0,0E0,0E0,0E0,0E0,0E0,0E0,0E0,0E0,0E0,0E0,0E0,0E0,0E0,0E0,0E0,0E0,0E0,0E0,0E0,0E0,0E0,0E0,0E0,0E0,0E0,0E0],"parents":[2147483647,0,0,1,1,2,2,3,3,4,4,5,5,6,6,7,7,8,8,9,9,10,10,11,11,12,12,13,13,14,14,15,15,16,16,17,17,18,18,19,19,20,20,21,21,22,22,23,23,24,24,25,25,26,26,27,27,28,28,29,29,30,30,31,31,32,32,33,33,34,34,35,35,36,36,37,37,38,38,39,39,40,40,41,41,42,42,43,43,44,44,45,45,46,46,47,47,48,48,49,49,50,50,51,51,52,52,53,53,54,54,55,55,56,56,57,57,58,58,59,59,60,60,61,61,62,62],"right_children":[2,4,6,8,10,12,14,16,18,20,22,24,26,28,30,32,34,36,38,40,42,44,46,48,50,52,54,56,58,60,62,64,66,68,70,72,74,76,78,80,82,84,86,88,90,92,94,96,98,100,102,104,106,108,110,112,114,116,118,120,122,124,126,-1,-1,-1,-1,-1,-1,-1,-1,-1,-1,-1,-1,-1,-1,-1,-1,-1,-1,-1,-1,-1,-1,-1,-1,-1,-1,-1,-1,-1,-1,-1,-1,-1,-1,-1,-1,-1,-1,-1,-1,-1,-1,-1,-1,-1,-1,-1,-1,-1,-1,-1,-1,-1,-1,-1,-1,-1,-1,-1,-1,-1,-1,-1,-1],"split_conditions":[9.9E1,1.3E1,2.3E1,9E0,1.7E1,6.2E1,1.14E2,8.4E1,2.8E1,3E1,3E1,1.7E1,1E0,6.7E1,1.19E2,3.6E1,6.6E1,1E0,9.5E1,1E0,9.5E1,1E0,9.3E1,1.03E2,9.5E1,2E1,7.2E1,9.5E1,1E0,8.3E1,7.4E1,1E0,7.8E1,9.1E1,1E0,6.2E1,8E1,6.5E1,5.4E1,8.6E1,8.6E1,8.8E1,6.6E1,2.2E1,8.2E1,6.4E1,9.3E1,2.6E1,2.8E1,6.4E1,1.09E2,1.07E2,7.1E1,1.86E2,2E1,2.7E1,3.7E1,2.9E1,7.4E1,4.5E1,2.4E1,1E0,1E0,-2.957146E0,-3.718522E0,-3.218168E0,-2.5849147E0,-2.5724792E0,-2.0774596E0,-2.1314178E0,-1.1484478E0,-1.2798278E0,-1.8708891E0,-3.5736446E0,-2.2381842E0,-1.0706075E0,-1.6639333E0,-1.0489694E0,3.1016073E-1,-2.4675305E0,-7.403234E-1,-2.875076E0,-1.4251623E0,-1.5965754E0,-6.546485E-1,8.865437E-2,1.8360778E0,-1.306716E-1,1.1243016E0,-3.03434E0,-1.0111878E0,4.82878E-1,-1.0712675E0,5.243756E-1,2.086425E0,-1.3011112E0,-3.4530497E-1,-4.0613806E-1,1.0562172E0,1.400626E0,4.3813375E-1,2.0436609E0,4.7268543E0,4.7832415E-1,2.841672E0,1.5029074E0,2.614339E0,1.8879988E0,3.378212E0,3.501864E0,5.6012588E0,1.4972022E0,2.8367727E0,3.9359589E0,5.6876793E0,3.3634217E0,5.423298E0,5.436776E0,7.582372E0,3.7589355E0,6.090289E0,3.7758374E0,7.4382544E0,7.0142903E0,1.4756494E0,4.6397324E0,1.222061E1],"split_indices":[5,4,4,4,4,1,5,5,1,1,1,4,0,1,5,1,1,0,3,0,3,0,5,5,3,4,1,3,0,3,3,0,5,5,0,3,3,3,1,5,3,5,1,4,3,3,3,1,1,3,5,5,1,2,4,1,1,4,1,1,1,0,0,0,0,0,0,0,0,0,0,0,0,0,0,0,0,0,0,0,0,0,0,0,0,0,0,0,0,0,0,0,0,0,0,0,0,0,0,0,0,0,0,0,0,0,0,0,0,0,0,0,0,0,0,0,0,0,0,0,0,0,0,0,0,0,0],"split_type":[0,0,0,0,0,0,0,0,0,0,0,0,0,0,0,0,0,0,0,0,0,0,0,0,0,0,0,0,0,0,0,0,0,0,0,0,0,0,0,0,0,0,0,0,0,0,0,0,0,0,0,0,0,0,0,0,0,0,0,0,0,0,0,0,0,0,0,0,0,0,0,0,0,0,0,0,0,0,0,0,0,0,0,0,0,0,0,0,0,0,0,0,0,0,0,0,0,0,0,0,0,0,0,0,0,0,0,0,0,0,0,0,0,0,0,0,0,0,0,0,0,0,0,0,0,0,0],"sum_hessian":[1.2E4,7.179E3,4.821E3,4.587E3,2.592E3,1.94E3,2.881E3,3.037E3,1.55E3,1.279E3,1.313E3,1.601E3,3.39E2,2.613E3,2.68E2,1.22E3,1.817E3,3.71E2,1.179E3,4.11E2,8.68E2,4.06E2,9.07E2,4.19E2,1.182E3,1.68E2,1.71E2,2.274E3,3.39E2,2.39E2,2.9E1,5.11E2,7.09E2,1.573E3,2.44E2,1.79E2,1.92E2,1.057E3,1.22E2,2.07E2,2.04E2,7.53E2,1.15E2,2.18E2,1.88E2,1.74E2,7.33E2,3.24E2,9.5E1,1.049E3,1.33E2,8.6E1,8.2E1,1.12E2,5.9E1,2.045E3,2.29E2,1.65E2,1.74E2,1.67E2,7.2E1,1E1,1.9E1,2.84E2,2.27E2,1.6E2,5.49E2,1.203E3,3.7E2,1.17E2,1.27E2,8.6E1,9.3E1,6.1E1,1.31E2,3.45E2,7.12E2,6.2E1,6E1,8E0,1.99E2,1.11E2,9.3E1,9.8E1,6.55E2,8.4E1,3.1E1,1.56E2,6.2E1,7E1,1.18E2,4.7E1,1.27E2,6.03E2,1.3E2,5.9E1,2.65E2,3.6E1,5.9E1,3.24E2,7.25E2,1.22E2,1.1E1,8E1,6E0,4.2E1,4E1,5.8E1,5.4E1,2.9E1,3E1,5.12E2,1.533E3,9.8E1,1.31E2,1.21E2,4.4E1,1.09E2,6.5E1,1.1E2,5.7E1,7E0,6.5E1,9E0,1E0,2E0,1.7E1],"tree_param":{"num_deleted":"0","num_feature":"7","num_nodes":"127","size_leaf_vector":"1"}},{"base_weights":[2.832846E-2,-3.399085E0,6.014139E0,-5.6160808E0,-1.1324443E0,4.511238E0,1.076783E1,-6.842611E0,-4.6688514E0,-2.9734397E0,2.158864E-1,3.238352E0,7.589834E0,9.520694E0,1.5617998E1,-7.748025E0,-6.455353E0,-6.604577E0,-4.140154E0,-3.6317968E0,-1.5397931E0,-2.0138386E-1,4.743456E0,1.8182E0,5.478704E0,4.7992783E0,9.708226E0,8.495774E0,1.5029326E1,7.0372095E0,1.642211E1,-6.74272E0,-2.6427732E0,-2.5375533E0,-6.197625E0,-8.316274E0,-5.781787E0,-6.130465E0,-3.7308056E0,-5.7331786E0,-3.2652864E0,-2.1181839E0,1.108488E0,-3.1358664E0,2.6906827E-1,1.9467796E0,6.6499143E0,4.6150346E0,7.428141E-1,3.436784E0,8.277393E0,8.865611E-1,5.472543E0,6.949924E0,1.2258257E1,8.06506E0,5.3883286E0,1.31206E1,2.3338596E1,5.729852E0,3.2502527E0,1.4453712E1,2.1014702E1,-2.1485932E0,-1.7929742E0,-1.9091816E0,-1.5237366E0,-2.0131981E0,-2.9820552E0,-1.6801367E0,-3.4155712E0,-1.3309218E0,-2.3416836E0,-1.2726154E0,-6.1640626E-1,-1.24567E0,-2.1090493E0,-1.3318294E0,-7.8910744E-1,-7.9785556E-1,-1.793864E-1,-6.883305E-2,1.6737558E0,-1.4209023E-1,-1.7984116E0,1.827925E-2,1.871823E0,4.1109517E-1,2.2299876E0,1.786358E0,3.0959103E0,1.4265647E0,-1.614821E0,-8.260419E-1,4.838568E-1,-4.351245E-1,1.3126991E0,1.708963E-1,2.7819571E0,1.5247319E0,-1.94988E-1,1.5128291E0,3.644944E0,1.5024139E0,2.7249694E0,3.3325388E0,5.1245174E0,1.0177404E0,2.5612292E0,9.251345E-1,4.200567E0,4.745276E0,9.031613E0,2.3384871E0,1.1684397E0,3.5796938E0,5.301096E0,3.694725E-1,6.405601E0],"categories":[],"categories_nodes":[],"categories_segments":[],"categories_sizes":[],"default_left":[0,0,0,0,0,0,0,0,0,0,0,0,0,0,0,0,0,0,0,0,0,0,0,0,0,0,0,0,0,0,0,0,0,0,0,0,0,0,0,0,0,0,0,0,0,0,0,0,0,0,0,0,0,0,0,0,0,0,0,0,0,0,0,0,0,0,0,0,0,0,0,0,0,0,0,0,0,0,0,0,0,0,0,0,0,0,0,0,0,0,0,0,0,0,0,0,0,0,0,0,0,0,0,0,0,0,0,0,0,0,0,0,0,0,0,0,0,0,0],"id":7,"left_children":[1,3,5,7,9,11,13,15,17,19,21,23,25,27,29,31,33,35,37,39,41,43,45,47,49,51,53,55,57,59,61,63,-1,-1,65,67,69,71,73,75,77,79,81,83,85,87,89,91,93,95,97,99,101,103,105,107,-1,109,111,113,-1,115,117,-1,-1,-1,-1,-1,-1,-1,-1,-1,-1,-1,-1,-1,-1,-1,-1,-1,-1,-1,-1,-1,-1,-1,-1,-1,-1,-1,-1,-1,-1,-1,-1,-1,-1,-1,-1,-1,-1,-1,-1,-1,-1,-1,-1,-1,-1,-1,-1,-1,-1,-1,-1,-1,-1,-1,-1],"loss_changes":[2.4623114E5,3.834546E4,3.117211E4,4.450297E3,9.371215E3,1.2993352E4,6.1965156E3,5.386875E2,2.2036992E3,1.500794E3,4.119455E3,7.473258E3,5.693465E3,4.5979453E3,1.3541211E3,4.7189258E2,5.578086E2,6.082168E2,1.3743887E3,8.23084E2,7.7434546E2,2.7577693E3,9.680957E2,4.330634E3,5.1833574E3,1.1041855E3,3.7904062E3,2.7415547E3,1.7555996E3,3.720166E1,1.4500273E3,4.0710938E1,0E0,0E0,1.631875E2,3.2179297E2,2.593506E2,7.911709E2,1.212377E3,3.009336E2,6.8387305E2,3.3911218E2,5.455954E2,2.0977673E3,2.1394656E3,2.3018439E2,2.1671045E2,5.861953E2,3.1741167E3,2.4336582E3,2.9420508E3,4.0946783E2,9.6897266E2,1.0605898E3,1.3908555E3,1.4697227E3,0E0,9.121172E2,6.943447E2,3.406299E1,0E0,9.1649023E2,3.473828E2,0E0,0E0,0E0,0E0,0E0,0E0,0E0,0E0,0E0,0E0,0E0,0E0,0E0,0E0,0E0,0E0,0E0,0E0,0E0,0E0,0E0,0E0,0E0,0E0,0E0,0E0,0E0,0E0,0E0,0E0,0E0,0E0,0E0,0E0,0E0,0E0,0E0,0E0,0E0,0E0,0E0,0E0,0E0,0E0,0E0,0E0,0E0,0E0,0E0,0E0,0E0,0E0,0E0,0E0,0E0,0E0],"parents":[2147483647,0,0,1,1,2,2,3,3,4,4,5,5,6,6,7,7,8,8,9,9,10,10,11,11,12,12,13,13,14,14,15,15,16,16,17,17,18,18,19,19,20,20,21,21,22,22,23,23,24,24,25,25,26,26,27,27,28,28,29,29,30,30,31,31,34,34,35,35,36,36,37,37,38,38,39,39,40,40,41,41,42,42,43,43,44,44,45,45,46,46,47,47,48,48,49,49,50,50,51,51,52,52,53,53,54,54,55,55,57,57,58,58,59,59,61,61,62,62],"right_children":[2,4,6,8,10,12,14,16,18,20,22,24,26,28,30,32,34,36,38,40,42,44,46,48,50,52,54,56,58,60,62,64,-1,-1,66,68,70,72,74,76,78,80,82,84,86,88,90,92,94,96,98,100,102,104,106,108,-1,110,112,114,-1,116,118,-1,-1,-1,-1,-1,-1,-1,-1,-1,-1,-1,-1,-1,-1,-1,-1,-1,-1,-1,-1,-1,-1,-1,-1,-1,-1,-1,-1,-1,-1,-1,-1,-1,-1,-1,-1,-1,-1,-1,-1,-1,-1,-1,-1,-1,-1,-1,-1,-1,-1,-1,-1,-1,-1,-1,-1],"split_conditions":[2E1,9.1E1,2.8E1,6E0,1.4E1,1.07E2,3E1,3E1,8.4E1,9.6E1,9.8E1,4.7E1,3.7E1,6.7E1,2.3E1,1E0,2E0,3.2E1,2.6E1,2.5E1,9E1,2.4E1,4.3E1,6.4E1,8E1,2.2E1,1E0,1.01E2,1.13E2,9.9E1,8.4E1,8.5E1,-2.6427732E0,-2.5375533E0,7E1,1E0,1.5E1,1E0,1.3E1,1E0,9E0,5.5E1,6E1,1E0,1.07E2,1.05E2,1.1E2,1E0,2.4E1,9.7E1,9.6E1,6.4E1,1.16E2,5.7E1,1.13E2,1.02E2,5.3883286E0,1.02E2,1E0,1E0,3.2502527E0,1.11E2,1.01E2,-2.1485932E0,-1.7929742E0,-1.9091816E0,-1.5237366E0,-2.0131981E0,-2.9820552E0,-1.6801367E0,-3.4155712E0,-1.3309218E0,-2.3416836E0,-1.2726154E0,-6.1640626E-1,-1.24567E0,-2.1090493E0,-1.3318294E0,-7.8910744E-1,-7.9785556E-1,-1.793864E-1,-6.883305E-2,1.6737558E0,-1.4209023E-1,-1.7984116E0,1.827925E-2,1.871823E0,4.1109517E-1,2.2299876E0,1.786358E0,3.0959103E0,1.4265647E0,-1.614821E0,-8.260419E-1,4.838568E-1,-4.351245E-1,1.3126991E0,1.708963E-1,2.7819571E0,1.5247319E0,-1.94988E-1,1.5128291E0,3.644944E0,1.5024139E0,2.7249694E0,3.3325388E0,5.1245174E0,1.0177404E0,2.5612292E0,9.251345E-1,4.200567E0,4.745276E0,9.031613E0,2.3384871E0,1.1684397E0,3.5796938E0,5.301096E0,3.694725E-1,6.405601E0],"split_indices":[4,5,4,4,4,5,4,1,5,5,3,1,1,1,1,0,4,1,1,1,3,1,1,3,3,1,0,3,5,3,3,5,0,0,1,0,4,0,4,0,4,1,1,0,5,5,3,0,1,5,5,3,5,1,5,5,0,5,0,0,0,5,5,0,0,0,0,0,0,0,0,0,0,0,0,0,0,0,0,0,0,0,0,0,0,0,0,0,0,0,0,0,0,0,0,0,0,0,0,0,0,0,0,0,0,0,0,0,0,0,0,0,0,0,0,0,0,0,0],"split_type":[0,0,0,0,0,0,0,0,0,0,0,0,0,0,0,0,0,0,0,0,0,0,0,0,0,0,0,0,0,0,0,0,0,0,0,0,0,0,0,0,0,0,0,0,0,0,0,0,0,0,0,0,0,0,0,0,0,0,0,0,0,0,0,0,0,0,0,0,0,0,0,0,0,0,0,0,0,0,0,0,0,0,0,0,0,0,0,0,0,0,0,0,0,0,0,0,0,0,0,0,0,0,0,0,0,0,0,0,0,0,0,0,0,0,0,0,0,0,0],"sum_hessian":[1.2E4,7.631E3,4.369E3,3.857E3,3.774E3,3.321E3,1.048E3,1.678E3,2.179E3,1.595E3,2.179E3,2.351E3,9.7E2,8.36E2,2.12E2,4.97E2,1.181E3,4.65E2,1.714E3,1.092E3,5.03E2,1.996E3,1.83E2,1.44E3,9.11E2,4.2E2,5.5E2,7.07E2,1.29E2,1.9E1,1.93E2,2.59E2,2.38E2,1.31E2,1.05E3,1.48E2,3.17E2,2.9E2,1.424E3,1.6E2,9.32E2,4.13E2,9E1,2.75E2,1.721E3,7.5E1,1.08E2,3.99E2,1.041E3,5.28E2,3.83E2,6.2E1,3.58E2,2.66E2,2.84E2,6.78E2,2.9E1,1.07E2,2.2E1,1.6E1,3E0,1.38E2,5.5E1,1.62E2,9.7E1,9.1E2,1.4E2,7.7E1,7.1E1,3.09E2,8E0,1.46E2,1.44E2,1.09E3,3.34E2,7.4E1,8.6E1,3.25E2,6.07E2,3.04E2,1.09E2,7E1,2E1,1.43E2,1.32E2,1.664E3,5.7E1,6.9E1,6E0,9.3E1,1.5E1,3.94E2,5E0,2.07E2,8.34E2,8.5E1,4.43E2,4.4E1,3.39E2,1.6E1,4.6E1,3.38E2,2E1,1.41E2,1.25E2,2.32E2,5.2E1,6.3E1,6.15E2,9E0,9.8E1,1.2E1,1E1,6E0,1E1,8E1,5.8E1,1E0,5.4E1],"tree_param":{"num_deleted":"0","num_feature":"7","num_nodes":"119","size_leaf_vector":"1"}},{"base_weights":[2.376054E-2,-2.463857E0,4.306293E0,-3.971811E0,-8.840894E-1,2.6847663E0,6.6560154E0,-4.7050376E0,-3.1746962E0,-2.0594132E0,4.1861817E-1,1.6790042E0,4.7305923E0,5.3861237E0,9.30437E0,-3.7465613E0,-5.1455007E0,-4.1137195E0,-2.5231001E0,-2.3537343E0,3.9045557E-1,-2.4877948E-1,3.7338262E0,6.571204E-2,2.5277522E0,3.9451945E0,8.741602E0,5.1849537E0,2.018753E1,7.517851E0,1.2105566E1,-4.6008973E0,-2.9043558E0,-5.641166E0,-3.918844E0,-4.9604464E0,-3.7608771E0,-2.369043E0,-8.574819E0,-1.1204389E0,-2.7840412E0,-2.1726768E0,2.6098938E0,2.451931E0,-8.1949216E-1,1.4133431E0,5.9373775E0,-1.7473824E-1,5.219601E0,2.0227604E0,5.441149E0,3.6786344E0,3.674197E0,7.705004E0,1.629367E1,4.1419396E0,7.599529E0,1.6534165E0,2.1890451E1,1.0952856E1,5.628029E0,7.2956257E0,1.4461899E1,-1.7458676E0,-1.3162891E0,-1.2287575E0,-7.647249E-1,-1.7824707E0,-1.2836804E0,-1.6191721E0,-1.066956E0,-1.198299E0,-1.7749524E0,-1.1615329E0,-2.8909266E-1,-9.9530023E-1,-4.793677E-1,-3.568156E0,-1.7768422E0,-6.9604194E-1,-1.0194928E-1,-1.0175624E0,-4.164197E-1,3.1090552E-1,-7.647348E-1,2.1978635E-1,1.372873E0,1.4132972E0,5.2543384E-1,-4.341793E-1,5.5931544E-1,1.2088246E0,3.5273917E-2,1.214737E0,2.7762773E0,-1.9492595E-1,5.569379E-1,8.741037E-1,2.2436318E0,1.4707965E0,4.092699E-1,1.4635999E0,3.9230785E0,9.657975E-1,2.190018E0,1.5813447E0,2.7166386E0,2.8039367E0,5.580545E0,2.103493E0,9.1999453E-1,7.861321E-1,2.6102636E0,1.5638375E0,6.83171E0,2.960851E0,3.7867188E0,1.456762E0,3.0013778E0,2.6459026E-1,2.3800514E0,4.204334E0,9.514693E0],"categories":[],"categories_nodes":[],"categories_segments":[],"categories_sizes":[],"default_left":[0,0,0,0,0,0,0,0,0,0,0,0,0,0,0,0,0,0,0,0,0,0,0,0,0,0,0,0,0,0,0,0,0,0,0,0,0,0,0,0,0,0,0,0,0,0,0,0,0,0,0,0,0,0,0,0,0,0,0,0,0,0,0,0,0,0,0,0,0,0,0,0,0,0,0,0,0,0,0,0,0,0,0,0,0,0,0,0,0,0,0,0,0,0,0,0,0,0,0,0,0,0,0,0,0,0,0,0,0,0,0,0,0,0,0,0,0,0,0,0,0,0,0],"id":8,"left_children":[1,3,5,7,9,11,13,15,17,19,21,23,25,27,29,31,33,35,37,39,41,43,45,47,49,51,53,55,57,59,61,63,65,67,69,71,73,75,77,79,81,83,85,87,89,91,93,95,97,99,101,103,-1,105,107,109,111,-1,113,115,117,119,121,-1,-1,-1,-1,-1,-1,-1,-1,-1,-1,-1,-1,-1,-1,-1,-1,-1,-1,-1,-1,-1,-1,-1,-1,-1,-1,-1,-1,-1,-1,-1,-1,-1,-1,-1,-1,-1,-1,-1,-1,-1,-1,-1,-1,-1,-1,-1,-1,-1,-1,-1,-1,-1,-1,-1,-1,-1,-1,-1,-1],"loss_changes":[1.278609E5,1.8082281E4,1.6784844E4,2.255125E3,5.6797246E3,5.3644883E3,6.0035E3,8.339375E2,1.1301348E3,1.4069619E3,3.8950378E3,2.3988096E3,2.6747168E3,3.5250195E3,2.8215469E3,4.4713477E2,8.1816797E2,2.09E2,1.0080239E3,9.208213E2,1.2003004E3,2.2615986E3,1.5000327E3,7.5066077E2,1.677979E3,1.5505312E3,9.704414E2,3.0007207E3,2.7923047E2,2.262332E3,2.4446016E3,5.659424E1,1.2713452E2,3.7642773E2,1.9560352E2,1.8049756E2,1.6440283E2,7.825591E2,1.6721204E2,4.2250775E2,1.0898828E3,1.2102615E2,4.137724E2,3.9685278E2,2.0430673E3,4.9104874E2,9.082583E2,5.5985394E2,1.1886511E2,1.8518713E3,6.6205615E2,1.1408467E3,0E0,3.6311963E2,8.270166E1,2.5798008E3,1.9623047E3,0E0,8.720703E1,1.0332031E2,7.388164E2,3.039292E2,7.135586E2,0E0,0E0,0E0,0E0,0E0,0E0,0E0,0E0,0E0,0E0,0E0,0E0,0E0,0E0,0E0,0E0,0E0,0E0,0E0,0E0,0E0,0E0,0E0,0E0,0E0,0E0,0E0,0E0,0E0,0E0,0E0,0E0,0E0,0E0,0E0,0E0,0E0,0E0,0E0,0E0,0E0,0E0,0E0,0E0,0E0,0E0,0E0,0E0,0E0,0E0,0E0,0E0,0E0,0E0,0E0,0E0,0E0,0E0,0E0,0E0],"parents":[2147483647,0,0,1,1,2,2,3,3,4,4,5,5,6,6,7,7,8,8,9,9,10,10,11,11,12,12,13,13,14,14,15,15,16,16,17,17,18,18,19,19,20,20,21,21,22,22,23,23,24,24,25,25,26,26,27,27,28,28,29,29,30,30,31,31,32,32,33,33,34,34,35,35,36,36,37,37,38,38,39,39,40,40,41,41,42,42,43,43,44,44,45,45,46,46,47,47,48,48,49,49,50,50,51,51,53,53,54,54,55,55,56,56,58,58,59,59,60,60,61,61,62,62],"right_children":[2,4,6,8,10,12,14,16,18,20,22,24,26,28,30,32,34,36,38,40,42,44,46,48,50,52,54,56,58,60,62,64,66,68,70,72,74,76,78,80,82,84,86,88,90,92,94,96,98,100,102,104,-1,106,108,110,112,-1,114,116,118,120,122,-1,-1,-1,-1,-1,-1,-1,-1,-1,-1,-1,-1,-1,-1,-1,-1,-1,-1,-1,-1,-1,-1,-1,-1,-1,-1,-1,-1,-1,-1,-1,-1,-1,-1,-1,-1,-1,-1,-1,-1,-1,-1,-1,-1,-1,-1,-1,-1,-1,-1,-1,-1,-1,-1,-1,-1,-1,-1,-1,-1],"split_conditions":[1E2,9.1E1,2.6E1,8.6E1,1.6E1,5.1E1,2.9E1,6.6E1,8E0,6.9E1,6.3E1,2E1,9.3E1,1.19E2,8E1,5E0,5.4E1,3E1,2E1,6.4E1,1E0,6E1,1E0,1.09E2,9.1E1,1.13E2,1.1E2,8.4E1,2.3E1,6.2E1,3.1E1,2E0,2.7E1,9.4E1,7.9E1,1E0,1.03E2,3.8E1,8.9E1,1.1E1,8.8E1,5.6E1,1.1E1,5.2E1,9.2E1,5.9E1,2.1E1,9E1,1.1E2,5.9E1,1.14E2,7.6E1,3.674197E0,4.05E1,2E1,6E1,2.8E1,1.6534165E0,1.53E2,3E1,1.15E2,1.03E2,1.21E2,-1.7458676E0,-1.3162891E0,-1.2287575E0,-7.647249E-1,-1.7824707E0,-1.2836804E0,-1.6191721E0,-1.066956E0,-1.198299E0,-1.7749524E0,-1.1615329E0,-2.8909266E-1,-9.9530023E-1,-4.793677E-1,-3.568156E0,-1.7768422E0,-6.9604194E-1,-1.0194928E-1,-1.0175624E0,-4.164197E-1,3.1090552E-1,-7.647348E-1,2.1978635E-1,1.372873E0,1.4132972E0,5.2543384E-1,-4.341793E-1,5.5931544E-1,1.2088246E0,3.5273917E-2,1.214737E0,2.7762773E0,-1.9492595E-1,5.569379E-1,8.741037E-1,2.2436318E0,1.4707965E0,4.092699E-1,1.4635999E0,3.9230785E0,9.657975E-1,2.190018E0,1.5813447E0,2.7166386E0,2.8039367E0,5.580545E0,2.103493E0,9.1999453E-1,7.861321E-1,2.6102636E0,1.5638375E0,6.83171E0,2.960851E0,3.7867188E0,1.456762E0,3.0013778E0,2.6459026E-1,2.3800514E0,4.204334E0,9.514693E0],"split_indices":[5,5,4,5,4,1,4,3,4,1,1,4,3,5,3,4,1,1,4,3,0,3,0,5,3,5,3,3,1,3,1,4,1,3,5,0,3,1,5,4,3,3,4,3,3,3,4,3,5,3,5,1,0,6,4,3,1,0,2,4,5,5,5,0,0,0,0,0,0,0,0,0,0,0,0,0,0,0,0,0,0,0,0,0,0,0,0,0,0,0,0,0,0,0,0,0,0,0,0,0,0,0,0,0,0,0,0,0,0,0,0,0,0,0,0,0,0,0,0,0,0,0,0],"split_type":[0,0,0,0,0,0,0,0,0,0,0,0,0,0,0,0,0,0,0,0,0,0,0,0,0,0,0,0,0,0,0,0,0,0,0,0,0,0,0,0,0,0,0,0,0,0,0,0,0,0,0,0,0,0,0,0,0,0,0,0,0,0,0,0,0,0,0,0,0,0,0,0,0,0,0,0,0,0,0,0,0,0,0,0,0,0,0,0,0,0,0,0,0,0,0,0,0,0,0,0,0,0,0,0,0,0,0,0,0,0,0,0,0,0,0,0,0,0,0,0,0,0,0],"sum_hessian":[1.2E4,7.591E3,4.409E3,3.883E3,3.708E3,2.61E3,1.799E3,2.02E3,1.863E3,1.949E3,1.759E3,1.751E3,8.59E2,1.218E3,5.81E2,6.39E2,1.381E3,7.61E2,1.102E3,1.74E3,2.09E2,1.465E3,2.94E2,6.04E2,1.147E3,7.2E2,1.39E2,1.203E3,1.5E1,3.57E2,2.24E2,3.15E2,3.24E2,9.81E2,4E2,2.2E2,5.41E2,1.076E3,2.6E1,4.51E2,1.289E3,9.7E1,1.12E2,2.55E2,1.21E3,1.44E2,1.5E2,5.78E2,2.6E1,9.79E2,1.68E2,6.99E2,2.1E1,1.24E2,1.5E1,8.42E2,3.61E2,2E0,1.3E1,1.25E2,2.32E2,7.5E1,1.49E2,4.3E1,2.72E2,7.2E1,2.52E2,8.01E2,1.8E2,7.6E1,3.24E2,1.12E2,1.08E2,5.2E2,2.1E1,4.81E2,5.95E2,1E1,1.6E1,1.77E2,2.74E2,8.97E2,3.92E2,1E1,8.7E1,5.8E1,5.4E1,5.9E1,1.96E2,9.81E2,2.29E2,4.7E1,9.7E1,9.7E1,5.3E1,4.69E2,1.09E2,1.4E1,1.2E1,1.81E2,7.98E2,1.58E2,1E1,6.22E2,7.7E1,4.6E1,7.8E1,5E0,1E1,2.28E2,6.14E2,6.6E1,2.95E2,1E0,1.2E1,8E1,4.5E1,1.99E2,3.3E1,7E0,6.8E1,1.47E2,2E0],"tree_param":{"num_deleted":"0","num_feature":"7","num_nodes":"123","size_leaf_vector":"1"}},{"base_weights":[2.150256E-2,-2.1709688E0,2.4707704E0,-3.0790634E0,-1.3495647E0,7.5588006E-1,3.977941E0,-3.7787206E0,-2.769794E0,-1.5580347E0,1.7209164E0,3.5010105E-1,3.6014051E0,3.531977E0,8.359104E0,-3.0504165E0,-4.5715604E0,-3.501449E0,-2.4286697E0,-2.3892556E-1,-2.1685524E0,9.77783E-1,4.239585E0,1.6110559E-1,4.463805E0,1.3568997E0,5.693592E0,3.196594E0,8.713177E0,5.994997E0,1.054903E1,-1.29738E0,-2.852026E0,-5.2959404E0,-3.9899712E0,-1.3431966E0,-3.2499537E0,-2.637145E0,-5.368668E-1,-1.0701373E0,6.2014276E-1,-2.8730767E0,-5.776419E-1,-2.1314406E0,1.4460131E0,2.4064105E0,5.259276E0,-1.589635E0,5.5457175E-1,3.1282344E0,6.931091E0,3.8350003E0,2.384897E-1,4.1048226E0,7.2161565E0,2.8230188E0,6.957213E0,7.6963205E0,2.0088774E1,8.373876E0,3.4929736E0,9.532283E0,1.6001934E1,-6.056198E-1,-9.0134037E-1,-1.409738E0,-1.7642194E0,-1.2656327E0,-8.515403E-1,-8.79049E-1,-1.0789195E0,-1.3260329E0,-7.52183E-1,-3.1621397E-1,5.8391505E-1,-2.8927723E-1,-1.7125715E0,2.1318498E-1,-2.0208592E0,-4.4694403E-1,-1.0535467E0,-7.248106E-1,1.801122E-1,1.3530207E-1,-8.752542E-1,2.1858516E-1,9.1796976E-1,2.4145524E-1,1.1301987E0,1.1215611E-1,1.7364763E0,1.3472867E-1,-1.0265521E0,9.777236E-2,9.928063E-1,6.048291E-1,2.1821702E0,1.469873E0,2.4629245E0,8.007684E-1,1.6350594E0,-3.9505355E-2,1.5201646E0,1.0131837E0,2.627497E0,1.5913068E0,2.7846358E0,1.3620255E0,6.689046E-1,1.8738228E0,4.1415057E0,1.85878E0,3.1815078E0,4.469992E0,8.411575E0,1.8864795E0,2.9450862E0,1.2494434E0,-1.7415428E0,2.6550384E0,5.156871E0,2.9884071E0,5.4932094E0],"categories":[],"categories_nodes":[],"categories_segments":[],"categories_sizes":[],"default_left":[0,0,0,0,0,0,0,0,0,0,0,0,0,0,0,0,0,0,0,0,0,0,0,0,0,0,0,0,0,0,0,0,0,0,0,0,0,0,0,0,0,0,0,0,0,0,0,0,0,0,0,0,0,0,0,0,0,0,0,0,0,0,0,0,0,0,0,0,0,0,0,0,0,0,0,0,0,0,0,0,0,0,0,0,0,0,0,0,0,0,0,0,0,0,0,0,0,0,0,0,0,0,0,0,0,0,0,0,0,0,0,0,0,0,0,0,0,0,0,0,0,0,0],"id":9,"left_children":[1,3,5,7,9,11,13,15,17,19,21,23,25,27,29,31,33,35,37,39,41,43,45,47,49,51,53,55,57,59,61,-1,63,65,67,-1,69,71,73,75,77,79,81,83,85,87,89,91,93,95,97,99,101,103,105,107,109,111,113,115,117,119,121,-1,-1,-1,-1,-1,-1,-1,-1,-1,-1,-1,-1,-1,-1,-1,-1,-1,-1,-1,-1,-1,-1,-1,-1,-1,-1,-1,-1,-1,-1,-1,-1,-1,-1,-1,-1,-1,-1,-1,-1,-1,-1,-1,-1,-1,-1,-1,-1,-1,-1,-1,-1,-1,-1,-1,-1,-1,-1,-1,-1],"loss_changes":[6.4450133E4,4.719711E3,1.4649273E4,6.4019727E2,2.1323047E3,3.0620374E3,5.865215E3,5.1671094E2,5.128799E2,2.5089194E3,3.9265637E2,1.805347E3,1.5466255E3,4.73341E3,1.3760254E3,1.095083E2,1.6339551E2,1.4792188E2,5.617793E2,7.054484E2,2.3857188E3,2.4329442E2,7.706903E1,1.5315221E3,3.1443164E2,4.453021E2,3.8402832E2,3.5979082E3,1.7655703E3,7.8022314E2,6.4028906E2,0E0,4.728711E1,3.9375977E1,5.3102295E1,0E0,4.8180664E1,2.866914E2,1.8570459E2,2.4103613E2,3.282471E2,1.2988926E3,1.4199556E3,4.5975662E1,1.6449298E2,3.838012E1,7.536456E1,1.5255688E3,1.1422251E3,2.988526E2,5.069214E1,7.959985E1,2.0086388E2,2.6158447E2,2.9043945E2,2.3779414E3,1.0435508E3,6.0637695E2,1.18475586E2,1.4593799E2,4.4896136E2,4.9035547E2,1.1047266E2,0E0,0E0,0E0,0E0,0E0,0E0,0E0,0E0,0E0,0E0,0E0,0E0,0E0,0E0,0E0,0E0,0E0,0E0,0E0,0E0,0E0,0E0,0E0,0E0,0E0,0E0,0E0,0E0,0E0,0E0,0E0,0E0,0E0,0E0,0E0,0E0,0E0,0E0,0E0,0E0,0E0,0E0,0E0,0E0,0E0,0E0,0E0,0E0,0E0,0E0,0E0,0E0,0E0,0E0,0E0,0E0,0E0,0E0,0E0,0E0],"parents":[2147483647,0,0,1,1,2,2,3,3,4,4,5,5,6,6,7,7,8,8,9,9,10,10,11,11,12,12,13,13,14,14,15,15,16,16,17,17,18,18,19,19,20,20,21,21,22,22,23,23,24,24,25,25,26,26,27,27,28,28,29,29,30,30,32,32,33,33,34,34,36,36,37,37,38,38,39,39,40,40,41,41,42,42,43,43,44,44,45,45,46,46,47,47,48,48,49,49,50,50,51,51,52,52,53,53,54,54,55,55,56,56,57,57,58,58,59,59,60,60,61,61,62,62],"right_children":[2,4,6,8,10,12,14,16,18,20,22,24,26,28,30,32,34,36,38,40,42,44,46,48,50,52,54,56,58,60,62,-1,64,66,68,-1,70,72,74,76,78,80,82,84,86,88,90,92,94,96,98,100,102,104,106,108,110,112,114,116,118,120,122,-1,-1,-1,-1,-1,-1,-1,-1,-1,-1,-1,-1,-1,-1,-1,-1,-1,-1,-1,-1,-1,-1,-1,-1,-1,-1,-1,-1,-1,-1,-1,-1,-1,-1,-1,-1,-1,-1,-1,-1,-1,-1,-1,-1,-1,-1,-1,-1,-1,-1,-1,-1,-1,-1,-1,-1,-1,-1,-1,-1],"split_conditions":[9.7E1,9E0,2.3E1,3.1E1,9.9E1,6.7E1,7E1,1E0,4E0,6.5E1,6.8E1,1.09E2,1E0,1.15E2,1E0,7.9E1,8.4E1,2E0,9.7E1,1.4E1,5.2E1,8.7E1,1.02E2,2.5E1,4.3E1,6.1E1,1.9E1,9.6E1,1.21E2,6.6E1,1.12E2,-1.29738E0,5.5E1,5E0,9.9E1,-1.3431966E0,1E0,7.9E1,7.1E1,1E0,1E0,1E0,1E0,3.97E1,1.06E2,7.5E1,8.8E1,1E0,9.8E1,1.13E2,6.8E1,2.1E1,1.08E2,1.04E2,7.4E1,6.2E1,1.1E2,8.2E1,1.81E2,1.06E2,1.85E2,3E1,2.7E1,-6.056198E-1,-9.0134037E-1,-1.409738E0,-1.7642194E0,-1.2656327E0,-8.515403E-1,-8.79049E-1,-1.0789195E0,-1.3260329E0,-7.52183E-1,-3.1621397E-1,5.8391505E-1,-2.8927723E-1,-1.7125715E0,2.1318498E-1,-2.0208592E0,-4.4694403E-1,-1.0535467E0,-7.248106E-1,1.801122E-1,1.3530207E-1,-8.752542E-1,2.1858516E-1,9.1796976E-1,2.4145524E-1,1.1301987E0,1.1215611E-1,1.7364763E0,1.3472867E-1,-1.0265521E0,9.777236E-2,9.928063E-1,6.048291E-1,2.1821702E0,1.469873E0,2.4629245E0,8.007684E-1,1.6350594E0,-3.9505355E-2,1.5201646E0,1.0131837E0,2.627497E0,1.5913068E0,2.7846358E0,1.3620255E0,6.689046E-1,1.8738228E0,4.1415057E0,1.85878E0,3.1815078E0,4.469992E0,8.411575E0,1.8864795E0,2.9450862E0,1.2494434E0,-1.7415428E0,2.6550384E0,5.156871E0,2.9884071E0,5.4932094E0],"split_indices":[5,4,4,1,3,1,1,0,4,3,1,5,0,5,0,5,3,4,3,4,1,5,3,1,1,3,4,3,5,3,5,0,3,4,3,0,0,5,1,0,0,0,0,6,3,1,5,0,3,5,3,4,5,5,1,3,3,3,2,5,2,4,4,0,0,0,0,0,0,0,0,0,0,0,0,0,0,0,0,0,0,0,0,0,0,0,0,0,0,0,0,0,0,0,0,0,0,0,0,0,0,0,0,0,0,0,0,0,0,0,0,0,0,0,0,0,0,0,0,0,0,0,0],"split_type":[0,0,0,0,0,0,0,0,0,0,0,0,0,0,0,0,0,0,0,0,0,0,0,0,0,0,0,0,0,0,0,0,0,0,0,0,0,0,0,0,0,0,0,0,0,0,0,0,0,0,0,0,0,0,0,0,0,0,0,0,0,0,0,0,0,0,0,0,0,0,0,0,0,0,0,0,0,0,0,0,0,0,0,0,0,0,0,0,0,0,0,0,0,0,0,0,0,0,0,0,0,0,0,0,0,0,0,0,0,0,0,0,0,0,0,0,0,0,0,0,0,0,0],"sum_hessian":[1.2E4,6.332E3,5.668E3,3.006E3,3.326E3,2.652E3,3.016E3,9.18E2,2.088E3,3.115E3,2.11E2,2.322E3,3.3E2,2.739E3,2.77E2,4.81E2,4.37E2,6.61E2,1.427E3,9.86E2,2.129E3,1.64E2,4.7E1,2.221E3,1.01E2,1.6E2,1.7E2,2.574E3,1.65E2,1.35E2,1.42E2,6.2E1,4.19E2,1.91E2,2.46E2,1.32E2,5.29E2,1.285E3,1.42E2,5.01E2,4.85E2,1.475E3,6.54E2,2.1E1,1.43E2,1.8E1,2.9E1,4.07E2,1.814E3,6.7E1,3.4E1,4.9E1,1.11E2,8.5E1,8.5E1,2.343E3,2.31E2,1.53E2,1.2E1,6.8E1,6.7E1,1.22E2,2E1,6.7E1,3.52E2,9.9E1,9.2E1,2.03E2,4.3E1,2.8E2,2.49E2,8.5E1,1.2E3,1.18E2,2.4E1,4.91E2,1E1,4.8E2,5E0,4.67E2,1.008E3,2.55E2,3.99E2,5E0,1.6E1,1E2,4.3E1,9E0,9E0,3E0,2.6E1,1.93E2,2.14E2,1.676E3,1.38E2,5.4E1,1.3E1,1.5E1,1.9E1,3E1,1.9E1,1.04E2,7E0,7.5E1,1E1,4.6E1,3.9E1,6E2,1.743E3,2.11E2,2E1,1.03E2,5E1,9E0,3E0,3E1,3.8E1,6.3E1,4E0,1.14E2,8E0,7E0,1.3E1],"tree_param":{"num_deleted":"0","num_feature":"7","num_nodes":"123","size_leaf_vector":"1"}},{"base_weights":[1.9218948E-2,-1.0714682E0,2.6180491E0,-1.7540178E0,2.2067551E-1,2.0991688E0,5.4304886E0,-2.2308774E0,-1.1571816E0,3.220976E-2,2.9467769E0,2.2371015E-1,2.688853E0,3.999675E0,7.233459E0,-2.1958864E0,-8.393907E0,-1.2773292E0,1.9833323E0,1.2978781E0,-3.921662E-1,1.2185076E0,4.608345E0,2.1865883E0,-8.953617E-1,1.552242E0,3.806307E0,2.9655247E0,5.8014274E0,5.1690392E0,9.641877E0,-1.74496E0,-2.671112E0,-9.244387E0,-9.9562514E-1,-1.2219621E0,-7.40971E0,1.4310348E-1,3.4238431E0,1.4390099E0,-6.760705E0,-1.1252916E0,9.539604E-1,2.9386802E0,-3.5401794E-1,3.363671E0,6.681529E0,3.453749E0,1.4763367E0,-1.9271636E0,7.688162E-1,2.2623122E0,-1.8087069E0,-3.7668464E-1,4.245079E0,5.5727534E0,2.3555062E0,5.335329E0,5.115675E0,7.796007E0,3.913586E0,8.180387E0,1.3149581E1,-6.8832695E-1,-4.1512492E-1,-1.0802481E0,-5.4713774E-1,-3.1402097E0,-1.0710303E0,-4.2520475E-1,4.941548E-2,-9.077199E-1,-2.8156724E0,-5.7204664E-1,3.4888664E-1,3.3409157E-1,1.5845215E0,-9.3653865E-2,5.908064E-1,-8.0976796E-1,-2.1909235E0,-9.347245E-2,-6.042725E-1,2.7444469E-2,6.467962E-1,4.6084636E-1,1.5475082E0,1.20988585E-1,-4.8325813E-1,-6.007731E-1,1.1011419E0,1.9648087E-1,2.231408E0,1.5148461E0,8.8421685E-1,2.882368E-1,7.4984425E-1,8.10309E-2,-9.16985E-1,-3.228956E-1,4.3482545E-1,1.0727432E0,4.9628606E-1,-3.6376867E-1,-1.6618142E0,-6.1987615E-1,3.1971815E-1,8.409395E-1,1.5807198E0,3.1206438E-1,1.7826267E0,3.317198E-1,1.4785541E0,7.307266E-1,1.8121673E0,3.3563566E0,2.0393956E0,7.12346E-1,1.8411783E0,2.1936037E-2,2.5473802E0,2.0983815E0,4.4958987E0],"categories":[],"categories_nodes":[],"categories_segments":[],"categories_sizes":[],"default_left":[0,0,0,0,0,0,0,0,0,0,0,0,0,0,0,0,0,0,0,0,0,0,0,0,0,0,0,0,0,0,0,0,0,0,0,0,0,0,0,0,0,0,0,0,0,0,0,0,0,0,0,0,0,0,0,0,0,0,0,0,0,0,0,0,0,0,0,0,0,0,0,0,0,0,0,0,0,0,0,0,0,0,0,0,0,0,0,0,0,0,0,0,0,0,0,0,0,0,0,0,0,0,0,0,0,0,0,0,0,0,0,0,0,0,0,0,0,0,0,0,0,0,0],"id":10,"left_children":[1,3,5,7,9,11,13,15,17,19,21,23,25,27,29,31,33,35,37,39,41,43,45,47,49,51,53,55,57,59,61,63,65,67,-1,69,71,73,75,77,79,81,83,85,87,89,91,93,95,97,99,101,103,105,107,109,111,113,-1,115,117,119,121,-1,-1,-1,-1,-1,-1,-1,-1,-1,-1,-1,-1,-1,-1,-1,-1,-1,-1,-1,-1,-1,-1,-1,-1,-1,-1,-1,-1,-1,-1,-1,-1,-1,-1,-1,-1,-1,-1,-1,-1,-1,-1,-1,-1,-1,-1,-1,-1,-1,-1,-1,-1,-1,-1,-1,-1,-1,-1,-1,-1],"loss_changes":[3.401977E4,7.456412E3,5.1662656E3,1.5718652E3,1.5016746E3,3.3138672E3,1.3950723E3,6.444756E2,9.3037573E2,1.4695302E3,5.37124E2,1.5791177E3,2.8899434E3,5.604136E2,1.1583535E3,6.5064355E2,4.269763E1,7.952976E2,2.4073917E2,7.9106934E2,2.02319E3,2.5531181E2,2.2524768E2,2.2980188E2,7.879143E2,2.7056206E3,2.1104492E3,3.0337427E2,4.9634692E2,4.0812866E2,4.6146875E2,3.0882275E2,1.1648398E3,5.9783813E1,0E0,6.366704E2,1.5350684E2,8.793299E1,2.1301605E2,6.284391E2,6.7213745E0,9.592623E2,7.4935333E2,1.3216812E2,4.824082E1,1.0942572E2,1.5469714E2,6.0262817E1,8.674249E1,7.031493E2,2.2258127E2,7.408135E2,4.3363928E2,2.7027805E2,1.5208262E3,5.5757935E1,5.187056E2,2.08177E2,0E0,6.612109E1,3.002931E2,2.0353076E2,2.4563623E2,0E0,0E0,0E0,0E0,0E0,0E0,0E0,0E0,0E0,0E0,0E0,0E0,0E0,0E0,0E0,0E0,0E0,0E0,0E0,0E0,0E0,0E0,0E0,0E0,0E0,0E0,0E0,0E0,0E0,0E0,0E0,0E0,0E0,0E0,0E0,0E0,0E0,0E0,0E0,0E0,0E0,0E0,0E0,0E0,0E0,0E0,0E0,0E0,0E0,0E0,0E0,0E0,0E0,0E0,0E0,0E0,0E0,0E0,0E0,0E0],"parents":[2147483647,0,0,1,1,2,2,3,3,4,4,5,5,6,6,7,7,8,8,9,9,10,10,11,11,12,12,13,13,14,14,15,15,16,16,17,17,18,18,19,19,20,20,21,21,22,22,23,23,24,24,25,25,26,26,27,27,28,28,29,29,30,30,31,31,32,32,33,33,35,35,36,36,37,37,38,38,39,39,40,40,41,41,42,42,43,43,44,44,45,45,46,46,47,47,48,48,49,49,50,50,51,51,52,52,53,53,54,54,55,55,56,56,57,57,59,59,60,60,61,61,62,62],"right_children":[2,4,6,8,10,12,14,16,18,20,22,24,26,28,30,32,34,36,38,40,42,44,46,48,50,52,54,56,58,60,62,64,66,68,-1,70,72,74,76,78,80,82,84,86,88,90,92,94,96,98,100,102,104,106,108,110,112,114,-1,116,118,120,122,-1,-1,-1,-1,-1,-1,-1,-1,-1,-1,-1,-1,-1,-1,-1,-1,-1,-1,-1,-1,-1,-1,-1,-1,-1,-1,-1,-1,-1,-1,-1,-1,-1,-1,-1,-1,-1,-1,-1,-1,-1,-1,-1,-1,-1,-1,-1,-1,-1,-1,-1,-1,-1,-1,-1,-1,-1,-1,-1,-1],"split_conditions":[1.02E2,9.5E1,2.9E1,8.9E1,7.3E1,2.8E1,4.3E1,1.9E1,7.6E1,6.3E1,1E0,6.7E1,1E0,3E1,1E0,1E0,4.07E1,2.5E1,1.1E1,1E0,8.6E1,1.65E2,7.7E1,5.7E1,8.4E1,7.2E1,7.5E1,6E1,1.18E2,1.6E2,6.8E1,5E0,8.6E1,4.5E1,-9.9562514E-1,9.4E1,6.9E1,1E0,1E0,1.5E1,5.5E1,1E0,4.4E1,2.1E1,7.4E1,1.69E2,1.1E1,5E1,2.6E1,1E0,2.2E1,5.8E1,1.85E2,4.4E1,2.4E1,2.1E1,8.5E1,2.4E1,5.115675E0,1.49E2,3E1,1.68E2,1.07E2,-6.8832695E-1,-4.1512492E-1,-1.0802481E0,-5.4713774E-1,-3.1402097E0,-1.0710303E0,-4.2520475E-1,4.941548E-2,-9.077199E-1,-2.8156724E0,-5.7204664E-1,3.4888664E-1,3.3409157E-1,1.5845215E0,-9.3653865E-2,5.908064E-1,-8.0976796E-1,-2.1909235E0,-9.347245E-2,-6.042725E-1,2.7444469E-2,6.467962E-1,4.6084636E-1,1.5475082E0,1.20988585E-1,-4.8325813E-1,-6.007731E-1,1.1011419E0,1.9648087E-1,2.231408E0,1.5148461E0,8.8421685E-1,2.882368E-1,7.4984425E-1,8.10309E-2,-9.16985E-1,-3.228956E-1,4.3482545E-1,1.0727432E0,4.9628606E-1,-3.6376867E-1,-1.6618142E0,-6.1987615E-1,3.1971815E-1,8.409395E-1,1.5807198E0,3.1206438E-1,1.7826267E0,3.317198E-1,1.4785541E0,7.307266E-1,1.8121673E0,3.3563566E0,2.0393956E0,7.12346E-1,1.8411783E0,2.1936037E-2,2.5473802E0,2.0983815E0,4.4958987E0],"split_indices":[5,5,4,5,1,1,1,4,1,3,0,3,0,4,0,0,6,4,4,0,3,2,1,3,3,3,3,3,5,2,1,4,3,1,0,3,3,0,0,4,3,0,1,4,3,2,4,3,4,0,1,3,2,1,4,1,3,1,0,2,4,2,5,0,0,0,0,0,0,0,0,0,0,0,0,0,0,0,0,0,0,0,0,0,0,0,0,0,0,0,0,0,0,0,0,0,0,0,0,0,0,0,0,0,0,0,0,0,0,0,0,0,0,0,0,0,0,0,0,0,0,0,0],"split_type":[0,0,0,0,0,0,0,0,0,0,0,0,0,0,0,0,0,0,0,0,0,0,0,0,0,0,0,0,0,0,0,0,0,0,0,0,0,0,0,0,0,0,0,0,0,0,0,0,0,0,0,0,0,0,0,0,0,0,0,0,0,0,0,0,0,0,0,0,0,0,0,0,0,0,0,0,0,0,0,0,0,0,0,0,0,0,0,0,0,0,0,0,0,0,0,0,0,0,0,0,0,0,0,0,0,0,0,0,0,0,0,0,0,0,0,0,0,0,0,0,0,0,0],"sum_hessian":[1.2E4,8.453E3,3.547E3,5.531E3,2.922E3,2.996E3,5.51E2,3.073E3,2.458E3,2.734E3,1.88E2,7.17E2,2.279E3,3.09E2,2.42E2,3.057E3,1.6E1,2.368E3,9E1,6.86E2,2.048E3,9.3E1,9.5E1,2.6E2,4.57E2,1.131E3,1.148E3,1.98E2,1.11E2,1.32E2,1.1E2,1.571E3,1.486E3,1.3E1,3E0,2.348E3,2E1,4E1,5E1,6.75E2,1.1E1,1.326E3,7.22E2,4.4E1,4.9E1,6.1E1,3.4E1,9.2E1,1.68E2,2.82E2,1.75E2,9.34E2,1.97E2,1.09E2,1.039E3,3.6E1,1.62E2,1.08E2,3E0,4.1E1,9.1E1,8E1,3E1,6.21E2,9.5E2,7.07E2,7.79E2,1E1,3E0,2.058E3,2.9E2,7E0,1.3E1,1.3E1,2.7E1,2.3E1,2.7E1,1.57E2,5.18E2,2E0,9E0,6.93E2,6.33E2,4.21E2,3.01E2,2.8E1,1.6E1,3.1E1,1.8E1,3E0,5.8E1,4E0,3E1,2E1,7.2E1,1.13E2,5.5E1,9.6E1,1.86E2,4.7E1,1.28E2,2.94E2,6.4E2,1.71E2,2.6E1,5E1,5.9E1,4.33E2,6.06E2,3E0,3.3E1,1.1E2,5.2E1,2.2E1,8.6E1,7E0,3.4E1,5.5E1,3.6E1,3E0,7.7E1,8E0,2.2E1],"tree_param":{"num_deleted":"0","num_feature":"7","num_nodes":"123","size_leaf_vector":"1"}},{"base_weights":[1.5516457E-2,-1.1100923E0,1.2847916E0,-1.5638076E0,-6.921966E-1,9.6903443E-1,4.3153076E0,-1.7171935E0,-7.784119E-1,-4.9164357E0,-6.338354E-1,-9.423717E-1,1.3151342E0,3.9817724E0,1.2654718E1,-1.1954763E0,-1.9434692E0,-1.4241519E0,-1.573779E-1,-3.1069965E0,-6.1192183E0,-8.20339E-1,6.401891E-1,9.719791E-1,-2.94923E0,1.1998901E0,5.9831676E0,2.262401E0,5.275329E0,1.7874473E0,1.3956474E1,-1.4636474E0,-7.715016E-1,-2.5534933E0,-1.7586386E0,-9.769405E-1,-1.8456593E0,-9.1436666E-1,6.067543E-1,-1.4484718E0,-2.2113664E0,-2.298196E0,-3.6824906E0,4.9552318E-1,-1.0795227E0,-6.3126785E-1,1.9899157E0,-1.0176143E-1,2.0355923E0,-6.043203E0,-1.3540893E0,1.002782E0,3.4851177E0,5.3760486E0,1.0627349E1,1.513821E0,3.9003568E0,3.888624E0,6.580096E0,4.9785236E-1,4.3996916E0,-7.1552175E-1,-4.0978745E-1,-2.0385446E-1,-1.365304E0,-6.194013E-1,-8.2652766E-1,-7.339107E-1,-4.701307E-1,-2.7718726E-1,-1.1002345E0,-5.236643E-1,-7.390325E-1,-7.717404E-1,-2.0704247E-1,-1.0288098E0,2.6057723E-1,-3.5181642E-1,-8.9207727E-1,-1.2407191E0,-2.8325844E-1,4.7030392E-1,4.5529768E-2,-4.369498E-1,-9.043194E-2,-1.0957553E-1,-1.1171206E0,3.3972156E-1,7.649894E-1,7.430229E-1,-7.922363E-2,7.005171E-1,-1.1896502E-1,-2.4816349E0,-1.3051972E0,-1.1835213E0,-2.968413E-1,1.3390933E-1,4.5657602E-1,5.168981E-1,1.2879748E0,1.3474898E0,2.2549148E0,2.6071474E-1,3.4548821E0,2.67987E-1,7.93923E-1,-1.1952965E0,1.2224704E0,2.1673493E0,9.1711783E-1,1.8155606E0,3.0976908E0],"categories":[],"categories_nodes":[],"categories_segments":[],"categories_sizes":[],"default_left":[0,0,0,0,0,0,0,0,0,0,0,0,0,0,0,0,0,0,0,0,0,0,0,0,0,0,0,0,0,0,0,0,0,0,0,0,0,0,0,0,0,0,0,0,0,0,0,0,0,0,0,0,0,0,0,0,0,0,0,0,0,0,0,0,0,0,0,0,0,0,0,0,0,0,0,0,0,0,0,0,0,0,0,0,0,0,0,0,0,0,0,0,0,0,0,0,0,0,0,0,0,0,0,0,0,0,0,0,0,0,0,0,0],"id":11,"left_children":[1,3,5,7,9,11,13,15,17,19,21,23,25,27,29,31,33,35,37,39,41,43,45,47,49,51,53,55,57,-1,59,61,63,65,67,69,71,73,75,-1,77,-1,79,81,83,85,87,89,91,93,95,97,99,101,103,105,107,109,111,-1,-1,-1,-1,-1,-1,-1,-1,-1,-1,-1,-1,-1,-1,-1,-1,-1,-1,-1,-1,-1,-1,-1,-1,-1,-1,-1,-1,-1,-1,-1,-1,-1,-1,-1,-1,-1,-1,-1,-1,-1,-1,-1,-1,-1,-1,-1,-1,-1,-1,-1,-1,-1,-1],"loss_changes":[1.7147342E4,1.2049985E3,5.3937314E3,3.6597168E2,8.1364404E2,3.3816938E3,1.4293633E3,2.987085E2,2.002891E2,7.892395E1,7.772731E2,3.0148618E3,2.3205854E3,1.1290303E3,9.119092E1,8.6872925E1,1.9586865E2,4.4380157E1,1.486353E2,2.0154922E1,6.9447205E1,9.7320984E2,7.18594E2,4.5930902E2,1.8820452E3,1.8991519E3,2.3610205E2,2.6629883E2,5.0273633E2,0E0,1.1519116E2,3.9318237E1,1.0190234E2,3.481372E1,1.7623438E2,1.3860107E1,3.4308472E0,4.618525E1,1.3824951E2,0E0,8.388008E0,0E0,1.0988312E1,1.7298605E2,6.985398E2,1.7633145E2,9.460272E1,8.4779785E1,1.4805096E2,4.5443994E2,2.360552E2,1.1229763E3,4.696521E2,1.4417603E2,8.541016E1,1.05868195E2,1.1119519E2,3.773694E2,2.3230664E2,0E0,0E0,0E0,0E0,0E0,0E0,0E0,0E0,0E0,0E0,0E0,0E0,0E0,0E0,0E0,0E0,0E0,0E0,0E0,0E0,0E0,0E0,0E0,0E0,0E0,0E0,0E0,0E0,0E0,0E0,0E0,0E0,0E0,0E0,0E0,0E0,0E0,0E0,0E0,0E0,0E0,0E0,0E0,0E0,0E0,0E0,0E0,0E0,0E0,0E0,0E0,0E0,0E0,0E0],"parents":[2147483647,0,0,1,1,2,2,3,3,4,4,5,5,6,6,7,7,8,8,9,9,10,10,11,11,12,12,13,13,14,14,15,15,16,16,17,17,18,18,19,19,20,20,21,21,22,22,23,23,24,24,25,25,26,26,27,27,28,28,30,30,31,31,32,32,33,33,34,34,35,35,36,36,37,37,38,38,40,40,42,42,43,43,44,44,45,45,46,46,47,47,48,48,49,49,50,50,51,51,52,52,53,53,54,54,55,55,56,56,57,57,58,58],"right_children":[2,4,6,8,10,12,14,16,18,20,22,24,26,28,30,32,34,36,38,40,42,44,46,48,50,52,54,56,58,-1,60,62,64,66,68,70,72,74,76,-1,78,-1,80,82,84,86,88,90,92,94,96,98,100,102,104,106,108,110,112,-1,-1,-1,-1,-1,-1,-1,-1,-1,-1,-1,-1,-1,-1,-1,-1,-1,-1,-1,-1,-1,-1,-1,-1,-1,-1,-1,-1,-1,-1,-1,-1,-1,-1,-1,-1,-1,-1,-1,-1,-1,-1,-1,-1,-1,-1,-1,-1,-1,-1,-1,-1,-1,-1],"split_conditions":[1.7E1,9E0,1.12E2,6.3E1,8.1E1,2.5E1,1.2E2,6.5E1,1E0,1E0,6.7E1,1E0,1.05E2,3.5E1,2.9E1,6E0,2.7E1,6.5E1,6E0,7.9E1,4.4E1,6E1,1E0,2.3E1,8.1E1,7.3E1,7.4E1,8.2E1,1E0,1.7874473E0,1.53E2,2E0,1E0,1E0,8.1E1,9.7E1,8.1E1,2E0,7.7E1,-1.4484718E0,1E1,-2.298196E0,7.5E1,5.2E1,8.6E1,1.79E2,1.2E1,4.9E1,7.2E1,7.5E1,9.6E1,2.3E1,2.1E1,1.12E2,9.8E1,4.09E1,1E0,5.7E1,3E1,4.9785236E-1,4.3996916E0,-7.1552175E-1,-4.0978745E-1,-2.0385446E-1,-1.365304E0,-6.194013E-1,-8.2652766E-1,-7.339107E-1,-4.701307E-1,-2.7718726E-1,-1.1002345E0,-5.236643E-1,-7.390325E-1,-7.717404E-1,-2.0704247E-1,-1.0288098E0,2.6057723E-1,-3.5181642E-1,-8.9207727E-1,-1.2407191E0,-2.8325844E-1,4.7030392E-1,4.5529768E-2,-4.369498E-1,-9.043194E-2,-1.0957553E-1,-1.1171206E0,3.3972156E-1,7.649894E-1,7.430229E-1,-7.922363E-2,7.005171E-1,-1.1896502E-1,-2.4816349E0,-1.3051972E0,-1.1835213E0,-2.968413E-1,1.3390933E-1,4.5657602E-1,5.168981E-1,1.2879748E0,1.3474898E0,2.2549148E0,2.6071474E-1,3.4548821E0,2.67987E-1,7.93923E-1,-1.1952965E0,1.2224704E0,2.1673493E0,9.1711783E-1,1.8155606E0,3.0976908E0],"split_indices":[4,4,5,1,5,1,5,3,0,0,1,0,3,1,1,4,1,3,4,5,1,3,0,4,3,1,1,3,0,0,2,4,0,0,5,5,3,4,5,0,4,0,1,3,3,2,4,3,3,3,5,4,4,3,5,6,0,3,4,0,0,0,0,0,0,0,0,0,0,0,0,0,0,0,0,0,0,0,0,0,0,0,0,0,0,0,0,0,0,0,0,0,0,0,0,0,0,0,0,0,0,0,0,0,0,0,0,0,0,0,0,0,0],"split_type":[0,0,0,0,0,0,0,0,0,0,0,0,0,0,0,0,0,0,0,0,0,0,0,0,0,0,0,0,0,0,0,0,0,0,0,0,0,0,0,0,0,0,0,0,0,0,0,0,0,0,0,0,0,0,0,0,0,0,0,0,0,0,0,0,0,0,0,0,0,0,0,0,0,0,0,0,0,0,0,0,0,0,0,0,0,0,0,0,0,0,0,0,0,0,0,0,0,0,0,0,0,0,0,0,0,0,0,0,0,0,0,0,0],"sum_hessian":[1.2E4,6.36E3,5.64E3,3.048E3,3.312E3,5.109E3,5.31E2,2.549E3,4.99E2,4.4E1,3.268E3,7.83E2,4.326E3,5.12E2,1.9E1,7.73E2,1.776E3,2.44E2,2.55E2,1.9E1,2.5E1,2.851E3,4.17E2,4.01E2,3.82E2,4.223E3,1.03E2,2.21E2,2.91E2,4E0,1.5E1,4.72E2,3.01E2,4.1E2,1.366E3,1.2E2,1.24E2,1.28E2,1.27E2,5E0,1.4E1,1.4E1,1.1E1,4.69E2,2.382E3,2.15E2,2.02E2,2E2,2.01E2,1.29E2,2.53E2,3.889E3,3.34E2,9.3E1,1E1,1.53E2,6.8E1,1.43E2,1.48E2,1E0,1.4E1,4.3E1,4.29E2,2.95E2,6E0,1.23E2,2.87E2,2.95E2,1.071E3,1.19E2,1E0,1.1E2,1.4E1,1.4E1,1.14E2,7E0,1.2E2,7E0,7E0,9E0,2E0,1.13E2,3.56E2,1.604E3,7.78E2,1.99E2,1.6E1,8.1E1,1.21E2,1.1E1,1.89E2,1.79E2,2.2E1,5.4E1,7.5E1,3E1,2.23E2,1.878E3,2.011E3,1.06E2,2.28E2,6.8E1,2.5E1,1E0,9E0,1E2,5.3E1,1E0,6.7E1,2.7E1,1.16E2,1.32E2,1.6E1],"tree_param":{"num_deleted":"0","num_feature":"7","num_nodes":"113","size_leaf_vector":"1"}},{"base_weights":[1.1285227E-2,-5.221689E-1,1.5052234E0,-9.093269E-1,1.244597E-1,8.1940466E-1,2.4657896E0,-1.6635888E0,-7.4232626E-1,-1.3915815E0,2.937711E-1,6.3217324E-1,3.577665E0,2.3008199E0,9.702004E0,-1.0868167E0,-2.2568753E0,-8.2737726E-1,4.8620605E-1,1.1643996E-1,-2.7869565E0,1.789118E0,1.704544E-1,3.251685E-1,1.9030821E0,3.3612165E0,4.302855E0,1.4172288E0,3.1974237E0,4.354673E0,3.1903763E0,-1.674342E0,-8.134498E-1,-2.1015584E0,-5.82504E0,1.7876653E-1,-9.4428223E-1,-3.669809E-1,1.2642136E0,-1.8998425E-1,3.3474643E0,-3.7077427E0,-5.730553E-1,6.282271E-1,2.369247E0,-2.607245E-1,8.2435185E-1,1.1403996E0,-1.8449238E-1,1.574459E0,4.5161595E0,2.9165573E0,6.9718843E0,2.1554906E0,-6.3078445E-1,2.9709046E0,6.796535E0,1.8256017E0,1.7866823E-1,-4.652191E-1,-1.3827572E0,-2.1517362E-1,-1.0390319E0,-7.3187625E-1,-2.0714939E-1,-1.3548856E0,-2.6544142E0,-9.296384E-2,3.367542E-1,-2.7580824E-1,-1.8375996E0,2.1618592E-2,-4.1077986E-1,2.9366836E-1,1.1528733E0,-1.3621457E-1,2.7277404E-1,5.046816E-1,1.4316998E0,-9.301548E-1,-2.05091E0,-2.3102684E-1,1.4213529E0,7.006852E-1,1.0155984E-1,8.846554E-1,3.3076292E-1,4.9910627E-2,-4.5214242E-1,-1.4312065E0,3.172744E-1,9.157461E-1,2.610128E-1,-1.5186551E-1,4.4073546E-1,-1.1208092E0,4.9220386E-1,7.2507E-1,1.593405E0,1.726884E0,7.137935E-1,4.1027072E-1,2.207113E0,4.5621148E-1,9.329065E-1,-8.3601605E-3,-1.1256118E0,7.4677116E-1,1.3031735E0,1.6955078E0,3.072039E0],"categories":[],"categories_nodes":[],"categories_segments":[],"categories_sizes":[],"default_left":[0,0,0,0,0,0,0,0,0,0,0,0,0,0,0,0,0,0,0,0,0,0,0,0,0,0,0,0,0,0,0,0,0,0,0,0,0,0,0,0,0,0,0,0,0,0,0,0,0,0,0,0,0,0,0,0,0,0,0,0,0,0,0,0,0,0,0,0,0,0,0,0,0,0,0,0,0,0,0,0,0,0,0,0,0,0,0,0,0,0,0,0,0,0,0,0,0,0,0,0,0,0,0,0,0,0,0,0,0,0,0],"id":12,"left_children":[1,3,5,7,9,11,13,15,17,19,21,23,25,27,29,31,33,35,37,39,41,43,45,47,49,51,-1,53,55,57,-1,59,61,63,65,67,69,71,73,75,77,79,81,83,85,87,89,91,93,95,97,99,101,103,105,107,109,-1,-1,-1,-1,-1,-1,-1,-1,-1,-1,-1,-1,-1,-1,-1,-1,-1,-1,-1,-1,-1,-1,-1,-1,-1,-1,-1,-1,-1,-1,-1,-1,-1,-1,-1,-1,-1,-1,-1,-1,-1,-1,-1,-1,-1,-1,-1,-1,-1,-1,-1,-1,-1,-1],"loss_changes":[9.564952E3,2.214186E3,2.0783887E3,6.955879E2,8.507998E2,9.500408E2,1.5474673E3,3.4042236E2,4.7383716E2,7.010416E2,5.493952E2,6.736036E2,2.2441333E2,1.0150703E3,9.830786E1,8.054907E1,2.6097705E2,4.9865576E2,1.9561697E2,1.6003629E2,3.505409E2,1.5138843E2,7.769784E2,5.7898987E2,2.814187E2,1.6590613E2,0E0,9.8413965E2,4.9994922E2,3.54104E1,0E0,5.1260284E1,8.674516E1,2.2440381E2,3.9167236E1,2.0417986E2,4.84635E2,6.2145187E1,1.09543945E2,4.3372456E1,2.5189163E1,2.1057751E2,5.8062824E1,3.7295162E1,1.07611084E2,8.8446124E2,1.4339419E3,2.7442737E2,4.572078E2,1.1162872E2,4.892743E1,1.4649512E2,1.584137E1,2.8480127E2,3.2545694E2,3.8730957E2,8.79939E1,0E0,0E0,0E0,0E0,0E0,0E0,0E0,0E0,0E0,0E0,0E0,0E0,0E0,0E0,0E0,0E0,0E0,0E0,0E0,0E0,0E0,0E0,0E0,0E0,0E0,0E0,0E0,0E0,0E0,0E0,0E0,0E0,0E0,0E0,0E0,0E0,0E0,0E0,0E0,0E0,0E0,0E0,0E0,0E0,0E0,0E0,0E0,0E0,0E0,0E0,0E0,0E0,0E0,0E0],"parents":[2147483647,0,0,1,1,2,2,3,3,4,4,5,5,6,6,7,7,8,8,9,9,10,10,11,11,12,12,13,13,14,14,15,15,16,16,17,17,18,18,19,19,20,20,21,21,22,22,23,23,24,24,25,25,27,27,28,28,29,29,31,31,32,32,33,33,34,34,35,35,36,36,37,37,38,38,39,39,40,40,41,41,42,42,43,43,44,44,45,45,46,46,47,47,48,48,49,49,50,50,51,51,52,52,53,53,54,54,55,55,56,56],"right_children":[2,4,6,8,10,12,14,16,18,20,22,24,26,28,30,32,34,36,38,40,42,44,46,48,50,52,-1,54,56,58,-1,60,62,64,66,68,70,72,74,76,78,80,82,84,86,88,90,92,94,96,98,100,102,104,106,108,110,-1,-1,-1,-1,-1,-1,-1,-1,-1,-1,-1,-1,-1,-1,-1,-1,-1,-1,-1,-1,-1,-1,-1,-1,-1,-1,-1,-1,-1,-1,-1,-1,-1,-1,-1,-1,-1,-1,-1,-1,-1,-1,-1,-1,-1,-1,-1,-1,-1,-1,-1,-1,-1,-1],"split_conditions":[1.03E2,9.5E1,4.5E1,2.6E1,2.3E1,3E1,1.17E2,1E0,7.4E1,1E0,5.5E1,8.9E1,1.21E2,1E0,4.9E1,8.5E1,1.9E1,5.7E1,1E0,2.8E1,9.1E1,1.7E1,8.1E1,6.5E1,1.04E2,9.9E1,4.302855E0,1.71E2,1.06E2,4.6E1,3.1903763E0,1.3E1,7.7E1,9.4E1,4.06E1,1.1E1,2.5E1,6.8E1,1.6E1,2.3E1,1.01E2,2.5E1,2.04E2,4.7E1,5.3E1,1E0,1E0,5.2E1,1.12E2,1E0,1.05E2,6E1,2.1E1,2.7E1,8E1,2.8E1,4.1E1,1.8256017E0,1.7866823E-1,-4.652191E-1,-1.3827572E0,-2.1517362E-1,-1.0390319E0,-7.3187625E-1,-2.0714939E-1,-1.3548856E0,-2.6544142E0,-9.296384E-2,3.367542E-1,-2.7580824E-1,-1.8375996E0,2.1618592E-2,-4.1077986E-1,2.9366836E-1,1.1528733E0,-1.3621457E-1,2.7277404E-1,5.046816E-1,1.4316998E0,-9.301548E-1,-2.05091E0,-2.3102684E-1,1.4213529E0,7.006852E-1,1.0155984E-1,8.846554E-1,3.3076292E-1,4.9910627E-2,-4.5214242E-1,-1.4312065E0,3.172744E-1,9.157461E-1,2.610128E-1,-1.5186551E-1,4.4073546E-1,-1.1208092E0,4.9220386E-1,7.2507E-1,1.593405E0,1.726884E0,7.137935E-1,4.1027072E-1,2.207113E0,4.5621148E-1,9.329065E-1,-8.3601605E-3,-1.1256118E0,7.4677116E-1,1.3031735E0,1.6955078E0,3.072039E0],"split_indices":[5,5,1,1,1,4,5,0,1,0,3,3,5,0,1,5,4,3,0,4,3,4,3,3,3,3,0,2,3,1,0,4,3,3,6,4,4,3,4,4,5,4,2,3,1,0,0,3,5,0,5,3,1,4,3,4,6,0,0,0,0,0,0,0,0,0,0,0,0,0,0,0,0,0,0,0,0,0,0,0,0,0,0,0,0,0,0,0,0,0,0,0,0,0,0,0,0,0,0,0,0,0,0,0,0,0,0,0,0,0,0],"split_type":[0,0,0,0,0,0,0,0,0,0,0,0,0,0,0,0,0,0,0,0,0,0,0,0,0,0,0,0,0,0,0,0,0,0,0,0,0,0,0,0,0,0,0,0,0,0,0,0,0,0,0,0,0,0,0,0,0,0,0,0,0,0,0,0,0,0,0,0,0,0,0,0,0,0,0,0,0,0,0,0,0,0,0,0,0,0,0,0,0,0,0,0,0,0,0,0,0,0,0,0,0,0,0,0,0,0,0,0,0,0,0],"sum_hessian":[1.2E4,8.843E3,3.157E3,5.531E3,3.312E3,1.843E3,1.314E3,1.001E3,4.53E3,3.32E2,2.98E3,1.727E3,1.16E2,1.286E3,2.8E1,5.09E2,4.92E2,4.237E3,2.93E2,1.6E2,1.72E2,2.26E2,2.754E3,1.392E3,3.35E2,1.15E2,1E0,6.49E2,6.37E2,5E0,2.3E1,1.6E2,3.49E2,4.73E2,1.9E1,4.41E2,3.796E3,1.4E2,1.53E2,1.47E2,1.3E1,1.21E2,5.1E1,7.6E1,1.5E2,1.66E3,1.094E3,5.35E2,8.57E2,2.99E2,3.6E1,1.04E2,1.1E1,4.77E2,1.72E2,6.01E2,3.6E1,3E0,2E0,1.55E2,5E0,3.38E2,1.1E1,3.81E2,9.2E1,1.5E1,4E0,2.91E2,1.5E2,3.779E3,1.7E1,9.8E1,4.2E1,1.39E2,1.4E1,1.19E2,2.8E1,7E0,6E0,1.03E2,1.8E1,5E1,1E0,1E1,6.6E1,1.02E2,4.8E1,1.237E3,4.23E2,4.3E1,1.051E3,6.5E1,4.7E2,7.18E2,1.39E2,3E0,2.96E2,1.1E1,2.5E1,1.5E1,8.9E1,1E0,1E1,2.88E2,1.89E2,1.45E2,2.7E1,4.47E2,1.54E2,2.9E1,7E0],"tree_param":{"num_deleted":"0","num_feature":"7","num_nodes":"111","size_leaf_vector":"1"}},{"base_weights":[9.291632E-3,-3.6643222E-1,1.0615058E0,-6.6023266E-1,1.0916677E-1,8.578491E-1,3.2367013E0,-1.372103E0,-5.5678E-1,-7.1480966E-1,3.7486047E-1,7.6261544E-1,4.280147E0,2.8128881E0,6.533445E0,-1.2526101E0,-3.14926E0,-6.50556E-1,1.2803393E-2,4.185502E-1,-1.9172174E0,2.7619913E-1,2.3745618E0,3.728325E-1,1.4795969E0,3.537859E0,3.3910983E0,2.5487125E0,2.2925541E0,5.323374E0,8.765457E0,-2.0766046E0,-1.0586518E0,-4.694958E0,-2.322959E0,-2.245902E-1,-8.185477E-1,-1.2487102E0,2.0868212E-1,2.815308E-1,2.8011706E0,-3.9195468E0,-1.1537348E0,1.1158943E0,6.903326E-2,1.0650406E0,2.9012465E0,1.036865E0,-2.7152386E-1,-3.6843936E0,1.6448095E0,2.461564E0,5.462831E0,2.3438697E0,6.413864E0,2.2174485E0,4.280309E0,1.1350358E0,2.8945181E0,-4.382378E-1,-7.919715E-1,-3.510485E-1,-1.1041321E-1,-6.0368425E-1,-1.6700404E0,-1.9585046E-1,-9.3761384E-1,-5.8132846E-2,-8.792405E-1,-3.2282275E-1,-1.6659847E-1,-4.5052972E-1,-2.1314432E-1,-4.2540815E-2,2.4829775E-1,-2.663834E-1,1.527171E-1,3.360176E-1,1.2746556E0,-1.5132262E0,-8.8006127E-1,-2.3038836E-1,-9.9056226E-1,6.099421E-1,1.2186991E-1,-1.2613843E-1,1.7461002E-1,6.487542E-2,6.0029006E-1,7.5055456E-1,1.1279184E0,8.025861E-1,2.4776368E-1,-1.6309091E-1,3.6667097E-1,-5.1816756E-1,-1.5005842E0,-1.0075833E-1,5.7764107E-1,1.4743924E-1,1.1926986E0,1.9758229E0,1.2824786E0,4.420155E-1,9.0177345E-1,2.3537648E0,5.839085E-1,1.4008405E0,2.723236E-1],"categories":[],"categories_nodes":[],"categories_segments":[],"categories_sizes":[],"default_left":[0,0,0,0,0,0,0,0,0,0,0,0,0,0,0,0,0,0,0,0,0,0,0,0,0,0,0,0,0,0,0,0,0,0,0,0,0,0,0,0,0,0,0,0,0,0,0,0,0,0,0,0,0,0,0,0,0,0,0,0,0,0,0,0,0,0,0,0,0,0,0,0,0,0,0,0,0,0,0,0,0,0,0,0,0,0,0,0,0,0,0,0,0,0,0,0,0,0,0,0,0,0,0,0,0,0,0,0,0],"id":13,"left_children":[1,3,5,7,9,11,13,15,17,19,21,23,25,27,29,31,33,35,37,39,41,43,45,47,49,51,-1,53,-1,55,57,59,61,63,65,67,69,71,73,75,77,79,81,83,85,87,89,91,93,95,97,99,101,103,105,-1,107,-1,-1,-1,-1,-1,-1,-1,-1,-1,-1,-1,-1,-1,-1,-1,-1,-1,-1,-1,-1,-1,-1,-1,-1,-1,-1,-1,-1,-1,-1,-1,-1,-1,-1,-1,-1,-1,-1,-1,-1,-1,-1,-1,-1,-1,-1,-1,-1,-1,-1,-1,-1],"loss_changes":[4.7448877E3,1.2358547E3,1.396196E3,4.0185254E2,7.397978E2,9.38313E2,3.588672E2,1.43219E2,2.5505652E2,1.1237173E3,5.0342828E2,7.8530994E2,3.6666003E2,2.879652E2,3.436499E1,1.0184479E2,4.4013947E1,2.9320703E2,1.6730266E2,1.379591E2,6.0697534E2,4.2368018E2,7.967462E1,7.8029517E2,8.5068506E2,1.3572516E2,0E0,1.6706873E2,0E0,1.5820129E1,3.084961E0,3.881073E1,4.0307373E1,2.1542267E1,3.8163895E1,9.624709E1,1.9869446E2,1.1327393E1,1.2724539E2,1.0768479E2,5.121646E1,1.0717175E2,2.3861469E2,3.129242E2,4.911664E2,2.8165833E1,1.973816E1,3.0821478E2,3.7705646E2,7.129941E1,5.343071E2,1.4122644E2,5.2025757E0,1.22356445E2,5.510208E1,0E0,1.8073212E1,0E0,0E0,0E0,0E0,0E0,0E0,0E0,0E0,0E0,0E0,0E0,0E0,0E0,0E0,0E0,0E0,0E0,0E0,0E0,0E0,0E0,0E0,0E0,0E0,0E0,0E0,0E0,0E0,0E0,0E0,0E0,0E0,0E0,0E0,0E0,0E0,0E0,0E0,0E0,0E0,0E0,0E0,0E0,0E0,0E0,0E0,0E0,0E0,0E0,0E0,0E0,0E0],"parents":[2147483647,0,0,1,1,2,2,3,3,4,4,5,5,6,6,7,7,8,8,9,9,10,10,11,11,12,12,13,13,14,14,15,15,16,16,17,17,18,18,19,19,20,20,21,21,22,22,23,23,24,24,25,25,27,27,29,29,30,30,31,31,32,32,33,33,34,34,35,35,36,36,37,37,38,38,39,39,40,40,41,41,42,42,43,43,44,44,45,45,46,46,47,47,48,48,49,49,50,50,51,51,52,52,53,53,54,54,56,56],"right_children":[2,4,6,8,10,12,14,16,18,20,22,24,26,28,30,32,34,36,38,40,42,44,46,48,50,52,-1,54,-1,56,58,60,62,64,66,68,70,72,74,76,78,80,82,84,86,88,90,92,94,96,98,100,102,104,106,-1,108,-1,-1,-1,-1,-1,-1,-1,-1,-1,-1,-1,-1,-1,-1,-1,-1,-1,-1,-1,-1,-1,-1,-1,-1,-1,-1,-1,-1,-1,-1,-1,-1,-1,-1,-1,-1,-1,-1,-1,-1,-1,-1,-1,-1,-1,-1,-1,-1,-1,-1,-1,-1],"split_conditions":[1.03E2,1.5E1,7.1E1,8.1E1,2.8E1,1.17E2,1.13E2,9E0,9.3E1,1E0,1.02E2,8.2E1,1.22E2,3E1,1.16E2,7.6E1,2.6E1,6.3E1,4E0,2.8E1,7.9E1,6.1E1,3.9E1,6.6E1,1E0,4.2E1,3.3910983E0,2.01E2,2.2925541E0,4.08E1,1.78E2,3E0,6.5E1,1.57E2,1E1,1E0,4E1,4.9E1,5.3E1,9.3E1,1.01E2,1.74E2,2.5E1,4.3E1,7.9E1,2.1E1,2.1E1,5.2E1,1.12E2,1.86E2,2.4E1,1E0,1.72E2,1.06E2,1.1E2,2.2174485E0,2.9E1,1.1350358E0,2.8945181E0,-4.382378E-1,-7.919715E-1,-3.510485E-1,-1.1041321E-1,-6.0368425E-1,-1.6700404E0,-1.9585046E-1,-9.3761384E-1,-5.8132846E-2,-8.792405E-1,-3.2282275E-1,-1.6659847E-1,-4.5052972E-1,-2.1314432E-1,-4.2540815E-2,2.4829775E-1,-2.663834E-1,1.527171E-1,3.360176E-1,1.2746556E0,-1.5132262E0,-8.8006127E-1,-2.3038836E-1,-9.9056226E-1,6.099421E-1,1.2186991E-1,-1.2613843E-1,1.7461002E-1,6.487542E-2,6.0029006E-1,7.5055456E-1,1.1279184E0,8.025861E-1,2.4776368E-1,-1.6309091E-1,3.6667097E-1,-5.1816756E-1,-1.5005842E0,-1.0075833E-1,5.7764107E-1,1.4743924E-1,1.1926986E0,1.9758229E0,1.2824786E0,4.420155E-1,9.0177345E-1,2.3537648E0,5.839085E-1,1.4008405E0,2.723236E-1],"split_indices":[5,4,1,5,1,5,5,4,3,0,3,3,5,4,5,5,1,3,4,4,3,3,1,3,0,1,0,2,0,6,2,4,1,2,4,0,1,1,1,5,5,2,4,1,3,4,4,3,5,2,1,0,2,5,5,0,4,0,0,0,0,0,0,0,0,0,0,0,0,0,0,0,0,0,0,0,0,0,0,0,0,0,0,0,0,0,0,0,0,0,0,0,0,0,0,0,0,0,0,0,0,0,0,0,0,0,0,0,0],"split_type":[0,0,0,0,0,0,0,0,0,0,0,0,0,0,0,0,0,0,0,0,0,0,0,0,0,0,0,0,0,0,0,0,0,0,0,0,0,0,0,0,0,0,0,0,0,0,0,0,0,0,0,0,0,0,0,0,0,0,0,0,0,0,0,0,0,0,0,0,0,0,0,0,0,0,0,0,0,0,0,0,0,0,0,0,0,0,0,0,0,0,0,0,0,0,0,0,0,0,0,0,0,0,0,0,0,0,0,0,0],"sum_hessian":[1.2E4,8.843E3,3.157E3,5.466E3,3.377E3,2.888E3,2.69E2,6.92E2,4.774E3,8.23E2,2.554E3,2.811E3,7.7E1,2.4E2,2.9E1,6.5E2,4.2E1,4.099E3,6.75E2,4.24E2,3.99E2,2.435E3,1.19E2,1.822E3,9.89E2,7.1E1,6E0,2.29E2,1.1E1,2.1E1,8E0,1.22E2,5.28E2,1.3E1,2.9E1,1.16E3,2.939E3,9E1,5.85E2,4.02E2,2.2E1,1.09E2,2.9E2,4.81E2,1.954E3,3.5E1,8.4E1,8.97E2,9.25E2,3E1,9.59E2,4.7E1,2.4E1,2.19E2,1E1,5E0,1.6E1,2E0,6E0,6E1,6.2E1,4.54E2,7.4E1,4E0,9E0,1E1,1.9E1,1.148E3,1.2E1,1.484E3,1.455E3,6E1,3E1,3.74E2,2.11E2,6.5E1,3.37E2,1.1E1,1.1E1,4.9E1,6E1,2.47E2,4.3E1,2.09E2,2.72E2,1E3,9.54E2,1.9E1,1.6E1,6E1,2.4E1,1.01E2,7.96E2,7.83E2,1.42E2,1.3E1,1.7E1,1.19E2,8.4E2,2.1E1,2.6E1,1E1,1.4E1,9.6E1,1.23E2,7E0,3E0,1.4E1,2E0],"tree_param":{"num_deleted":"0","num_feature":"7","num_nodes":"109","size_leaf_vector":"1"}},{"base_weights":[7.872811E-3,-3.1052765E-1,6.579048E-1,-6.7129034E-1,-1.2670892E-1,4.3624005E-1,1.8909037E0,-6.475242E-1,-5.9785724E0,-1.5358819E-1,2.6627853E0,-6.666413E-1,6.3434833E-1,1.7132092E0,5.3366985E0,-3.902479E-1,-9.230053E-1,-7.238512E0,2.1408336E-1,-1.13721E0,-8.171612E-2,1.6871918E0,4.2170906E0,4.1469744E-1,-1.7667154E0,5.167558E-1,2.5856578E0,8.9948857E-1,2.5041866E0,1.4109802E-1,1.7792292E0,-3.0693722E-1,-1.0350289E0,-7.441846E-1,-2.2973478E0,-2.7519875E0,-2.6304502E0,1.1735917E-1,-2.1021653E-2,-5.3992075E-1,-1.6286731E0,-2.6905665E-1,2.8938988E-1,9.876404E-2,2.8524141E0,1.3453264E0,1.2965189E0,-6.697094E-2,9.606109E-1,-4.6557145E0,-9.7785205E-1,4.207521E-1,2.065503E0,1.6026434E0,3.8731172E0,1.9530383E0,-3.113314E-1,2.129982E0,5.0053697E0,1.5404816E0,-6.0855794E-1,-1.3478887E-1,6.6803806E-2,-2.7730954E-1,-7.8076535E-1,-3.0755347E-1,-8.799129E-2,-1.3219904E0,-4.7778076E-1,-9.7429585E-1,-1.8974878E-1,-1.2618533E-1,-8.441254E-1,-6.755172E-1,-1.0736824E-1,-8.859699E-3,-2.8514567E-1,-8.704403E-2,2.3363951E-1,5.298908E-1,-2.0045598E-1,1.8175904E0,6.356465E-1,-1.836113E-1,7.6704484E-1,-1.4998013E-1,2.044246E-1,4.5532146E-1,-1.4656656E-2,-1.4743923E0,-3.4059268E-1,-3.794419E-1,4.204079E-1,-9.859344E-1,1.3820565E-1,4.8901883E-1,1.3177516E0,2.567568E-1,7.586742E-1,6.78667E-1,1.5615546E0,7.5469303E-1,3.6052158E-1,-1.8307704E-1,9.178503E-1,5.980997E-1,2.5559418E0,1.6799753E0,3.0006564E-1,8.965073E-2,6.03566E-1],"categories":[],"categories_nodes":[],"categories_segments":[],"categories_sizes":[],"default_left":[0,0,0,0,0,0,0,0,0,0,0,0,0,0,0,0,0,0,0,0,0,0,0,0,0,0,0,0,0,0,0,0,0,0,0,0,0,0,0,0,0,0,0,0,0,0,0,0,0,0,0,0,0,0,0,0,0,0,0,0,0,0,0,0,0,0,0,0,0,0,0,0,0,0,0,0,0,0,0,0,0,0,0,0,0,0,0,0,0,0,0,0,0,0,0,0,0,0,0,0,0,0,0,0,0,0,0,0,0,0,0],"id":14,"left_children":[1,3,5,7,9,11,13,15,17,19,21,23,25,27,29,31,33,35,37,39,41,43,45,47,49,51,53,55,57,59,-1,61,63,65,67,69,-1,-1,-1,71,73,75,77,79,81,-1,83,85,87,89,91,93,95,97,99,101,103,105,107,109,-1,-1,-1,-1,-1,-1,-1,-1,-1,-1,-1,-1,-1,-1,-1,-1,-1,-1,-1,-1,-1,-1,-1,-1,-1,-1,-1,-1,-1,-1,-1,-1,-1,-1,-1,-1,-1,-1,-1,-1,-1,-1,-1,-1,-1,-1,-1,-1,-1,-1,-1],"loss_changes":[2.484057E3,5.34148E2,1.0776658E3,3.3908582E2,4.0064966E2,7.314902E2,3.5884863E2,1.915686E2,9.517813E1,3.7374188E2,7.021982E1,6.074045E2,6.496404E2,3.6655017E2,8.867255E1,7.499379E1,3.1949988E2,4.4498474E1,1.7839567E-1,1.0479703E2,3.427577E2,6.0797043E1,9.020294E0,6.790524E1,5.7204083E2,3.971618E2,1.9755286E2,3.628952E2,2.6076514E2,1.5269454E1,0E0,9.3816895E1,2.5349182E1,1.464115E2,2.1595844E2,2.1481056E0,0E0,0E0,0E0,4.3305534E1,1.5517084E2,5.346767E2,4.6935016E2,2.0364014E1,3.1851974E1,0E0,8.780912E0,4.5055897E1,6.8124695E1,4.36427E1,1.383174E2,3.748732E2,1.5091022E2,6.216623E1,1.3628589E2,6.1224976E1,1.3588153E2,2.0425793E2,8.250531E1,1.1547303E0,0E0,0E0,0E0,0E0,0E0,0E0,0E0,0E0,0E0,0E0,0E0,0E0,0E0,0E0,0E0,0E0,0E0,0E0,0E0,0E0,0E0,0E0,0E0,0E0,0E0,0E0,0E0,0E0,0E0,0E0,0E0,0E0,0E0,0E0,0E0,0E0,0E0,0E0,0E0,0E0,0E0,0E0,0E0,0E0,0E0,0E0,0E0,0E0,0E0,0E0,0E0],"parents":[2147483647,0,0,1,1,2,2,3,3,4,4,5,5,6,6,7,7,8,8,9,9,10,10,11,11,12,12,13,13,14,14,15,15,16,16,17,17,18,18,19,19,20,20,21,21,22,22,23,23,24,24,25,25,26,26,27,27,28,28,29,29,31,31,32,32,33,33,34,34,35,35,39,39,40,40,41,41,42,42,43,43,44,44,46,46,47,47,48,48,49,49,50,50,51,51,52,52,53,53,54,54,55,55,56,56,57,57,58,58,59,59],"right_children":[2,4,6,8,10,12,14,16,18,20,22,24,26,28,30,32,34,36,38,40,42,44,46,48,50,52,54,56,58,60,-1,62,64,66,68,70,-1,-1,-1,72,74,76,78,80,82,-1,84,86,88,90,92,94,96,98,100,102,104,106,108,110,-1,-1,-1,-1,-1,-1,-1,-1,-1,-1,-1,-1,-1,-1,-1,-1,-1,-1,-1,-1,-1,-1,-1,-1,-1,-1,-1,-1,-1,-1,-1,-1,-1,-1,-1,-1,-1,-1,-1,-1,-1,-1,-1,-1,-1,-1,-1,-1,-1,-1,-1],"split_conditions":[2.1E1,8.8E1,6.5E1,1.8E1,1.09E2,2.4E1,3E1,1E0,1.85E2,2.2E1,7.6E1,1E0,3E1,1E0,1.03E2,7.4E1,1.1E1,1.65E2,4.2E1,1E0,8.3E1,1.1E2,1E2,2.6E1,7.6E1,9.9E1,1.11E2,6.6E1,7.8E1,7.4E1,1.7792292E0,9E0,4.02E1,9E1,8E1,1.59E2,-2.6304502E0,1.1735917E-1,-2.1021653E-2,7.7E1,9E1,1E0,4.2E1,1.8E1,1.7E1,1.3453264E0,3.9E1,6.5E1,1.1E2,1.15E2,1.13E2,9.2E1,1.1E2,7.7E1,1E0,6E1,1.14E2,1.19E2,4.1E1,1E0,-6.0855794E-1,-1.3478887E-1,6.6803806E-2,-2.7730954E-1,-7.8076535E-1,-3.0755347E-1,-8.799129E-2,-1.3219904E0,-4.7778076E-1,-9.7429585E-1,-1.8974878E-1,-1.2618533E-1,-8.441254E-1,-6.755172E-1,-1.0736824E-1,-8.859699E-3,-2.8514567E-1,-8.704403E-2,2.3363951E-1,5.298908E-1,-2.0045598E-1,1.8175904E0,6.356465E-1,-1.836113E-1,7.6704484E-1,-1.4998013E-1,2.044246E-1,4.5532146E-1,-1.4656656E-2,-1.4743923E0,-3.4059268E-1,-3.794419E-1,4.204079E-1,-9.859344E-1,1.3820565E-1,4.8901883E-1,1.3177516E0,2.567568E-1,7.586742E-1,6.78667E-1,1.5615546E0,7.5469303E-1,3.6052158E-1,-1.8307704E-1,9.178503E-1,5.980997E-1,2.5559418E0,1.6799753E0,3.0006564E-1,8.965073E-2,6.03566E-1],"split_indices":[4,5,1,4,5,1,4,0,2,1,3,0,4,0,5,3,4,2,1,0,3,5,3,4,3,3,5,3,1,1,0,4,6,3,3,2,0,0,0,3,3,0,1,4,4,0,1,3,5,5,5,5,3,3,0,3,5,5,6,0,0,0,0,0,0,0,0,0,0,0,0,0,0,0,0,0,0,0,0,0,0,0,0,0,0,0,0,0,0,0,0,0,0,0,0,0,0,0,0,0,0,0,0,0,0,0,0,0,0,0,0],"split_type":[0,0,0,0,0,0,0,0,0,0,0,0,0,0,0,0,0,0,0,0,0,0,0,0,0,0,0,0,0,0,0,0,0,0,0,0,0,0,0,0,0,0,0,0,0,0,0,0,0,0,0,0,0,0,0,0,0,0,0,0,0,0,0,0,0,0,0,0,0,0,0,0,0,0,0,0,0,0,0,0,0,0,0,0,0,0,0,0,0,0,0,0,0,0,0,0,0,0,0,0,0,0,0,0,0,0,0,0,0,0,0],"sum_hessian":[1.2E4,8.055E3,3.945E3,2.718E3,5.337E3,3.345E3,6E2,2.707E3,1.1E1,5.287E3,5E1,5.09E2,2.836E3,5.72E2,2.8E1,1.401E3,1.306E3,9E0,2E0,3.59E2,4.928E3,3.2E1,1.8E1,2.57E2,2.52E2,2.676E3,1.6E2,2.83E2,2.89E2,3E0,2.5E1,1.242E3,1.59E2,1.157E3,1.49E2,3E0,6E0,1E0,1E0,1.63E2,1.96E2,3.275E3,1.653E3,1.4E1,1.8E1,1.6E1,2E0,1.37E2,1.2E2,5.3E1,1.99E2,2.521E3,1.55E2,9.2E1,6.8E1,1.51E2,1.32E2,2.53E2,3.6E1,2E0,1E0,9.79E2,2.63E2,1.5E2,9E0,7.12E2,4.45E2,3.6E1,1.13E2,2E0,1E0,1.56E2,7E0,1.31E2,6.5E1,2.424E3,8.51E2,7.57E2,8.96E2,4E0,1E1,2E0,1.6E1,1E0,1E0,8.7E1,5E1,7.7E1,4.3E1,4.9E1,4E0,1.78E2,2.1E1,2.6E1,2.495E3,1.32E2,2.3E1,5.2E1,4E1,3.2E1,3.6E1,8.5E1,6.6E1,1.22E2,1E1,2.49E2,4E0,3.1E1,5E0,1E0,1E0],"tree_param":{"num_deleted":"0","num_feature":"7","num_nodes":"111","size_leaf_vector":"1"}},{"base_weights":[6.143097E-3,-1.3096692E-1,8.280006E-1,-4.3662733E-1,5.4771256E-2,3.578183E-1,1.4461787E0,-1.2292503E0,-3.942158E-1,-7.543758E-3,1.6679239E0,9.554032E-1,-2.693311E-1,-2.315743E0,1.681248E0,-9.607831E-1,-2.4444194E0,-4.3354037E-1,5.6385636E-1,-2.109227E0,2.9590927E-2,9.5886153E-1,2.334255E0,3.5279028E0,8.011001E-1,-8.859355E-1,6.585997E-1,-3.3084903E0,9.632707E-1,2.145894E-1,2.0620859E0,-1.2276587E0,-4.429502E-1,-8.2656896E-1,-2.9726534E0,1.9930607E-1,-4.6921855E-1,-2.879291E-1,1.1614733E0,-9.602512E-1,-3.1780722E0,-1.3820543E-2,1.6934111E0,1.5654224E0,-1.1209865E0,-4.6514654E-1,2.508698E0,2.7523363E0,4.6486893E0,4.706936E-1,1.9001575E0,-1.8066791E0,-5.917928E-1,2.5127394E0,5.30606E-2,-2.0855083E0,-4.718567E0,2.8451781E0,-5.1855904E-1,2.1934398E-2,2.8132386E0,2.7443986E0,1.1446272E0,-2.9774845E-1,-5.8778894E-1,-3.869271E-1,-5.6542143E-2,-3.7220952E-1,-4.928999E-2,-9.4719326E-1,-1.513528E-1,-2.1364905E-1,1.025171E-1,-1.14213854E-1,-2.0874299E-1,-3.2122448E-1,5.4334883E-2,1.22687645E-1,4.7345468E-1,-5.8061326E-1,-1.0752148E-1,-1.0112976E0,3.73209E-2,1.1138189E-1,-7.3813185E-2,4.4679567E-1,1.9438401E0,1.4275721E0,4.207471E-1,-5.23508E-1,2.7338237E-1,-6.415016E-1,5.22789E-1,1.1459148E0,5.2756774E-1,1.0113736E0,3.6292288E-1,1.7753243E0,6.588245E-1,-1.05341636E-1,2.9867625E-1,5.1643926E-1,1.1822938E0,-1.69187E-1,-9.67786E-1,-2.1075459E-1,5.377675E-1,3.4286237E-1,1.528627E0,-4.1615805E-1,2.7688822E-1,-7.8670704E-1,2.152422E-1,-6.129616E-1,-1.5651422E0,9.525353E-1,2.2881319E-1,8.6331177E-1,-7.357819E-1,-7.764349E-2,4.9896058E-1,-1.9226075E-3,9.381735E-1,7.1002287E-1,1.1556562E0,2.232645E-1,9.899178E-1],"categories":[],"categories_nodes":[],"categories_segments":[],"categories_sizes":[],"default_left":[0,0,0,0,0,0,0,0,0,0,0,0,0,0,0,0,0,0,0,0,0,0,0,0,0,0,0,0,0,0,0,0,0,0,0,0,0,0,0,0,0,0,0,0,0,0,0,0,0,0,0,0,0,0,0,0,0,0,0,0,0,0,0,0,0,0,0,0,0,0,0,0,0,0,0,0,0,0,0,0,0,0,0,0,0,0,0,0,0,0,0,0,0,0,0,0,0,0,0,0,0,0,0,0,0,0,0,0,0,0,0,0,0,0,0,0,0,0,0,0,0,0,0,0,0,0,0],"id":15,"left_children":[1,3,5,7,9,11,13,15,17,19,21,23,25,27,29,31,33,35,37,39,41,43,45,47,49,51,53,55,57,59,61,63,65,67,69,71,73,75,77,79,81,83,85,87,89,91,93,95,97,99,101,103,105,107,109,111,113,115,117,119,121,123,125,-1,-1,-1,-1,-1,-1,-1,-1,-1,-1,-1,-1,-1,-1,-1,-1,-1,-1,-1,-1,-1,-1,-1,-1,-1,-1,-1,-1,-1,-1,-1,-1,-1,-1,-1,-1,-1,-1,-1,-1,-1,-1,-1,-1,-1,-1,-1,-1,-1,-1,-1,-1,-1,-1,-1,-1,-1,-1,-1,-1,-1,-1,-1,-1],"loss_changes":[1.35244E3,5.8398895E2,4.9824902E2,1.3021582E2,6.4326337E2,3.6603775E2,6.591687E2,6.1919342E1,1.3934344E2,4.809778E2,1.10209656E2,1.9564618E2,2.7350674E2,1.4641719E2,3.894319E2,2.1982315E1,2.7454025E1,8.01806E1,7.4654465E1,1.2835251E2,4.3744153E2,1.4935666E2,6.0743958E1,1.1544098E1,1.7086877E2,7.665904E1,2.1431271E2,4.8792328E1,3.2150726E1,7.2531494E1,3.4365894E2,1.6465271E1,1.2039974E1,2.5388036E0,1.02569275E1,2.4907131E1,6.707849E1,2.259177E1,2.6322426E1,3.0410786E1,3.546057E1,5.279832E2,1.407767E2,4.0670425E1,3.583192E1,3.3278603E1,1.0637897E2,1.4061432E1,1.8129166E1,1.5780139E2,3.2966003E1,